/* Auto-generated - DO NOT EDIT */
/**
 * Floating-point Neural Network Weights for pO2 Prediction
 * Architecture: MLP with ReLU activations
 * Format: Weights are stored row-major (output x input)
 */

#ifndef FP32_MODEL_WEIGHTS_H
#define FP32_MODEL_WEIGHTS_H

#include <stdint.h>

/** Input normalization constants */
static const float INPUT_NORM_MIN[3]   = { 7.86529684f, 21.51560020f, 0.00000000f };
static const float INPUT_NORM_RANGE[3] = { 20.61312675f, 5.88283730f, 12.25181484f };

/** Layer 0: Linear(3 → 128) */
static const float L0_WEIGHTS[384] = {
    0.01508788f, -0.20982857f, 0.09764349f, -0.00016255f, -0.00026429f, -0.00026492f, -0.00000000f, -0.00000001f,
    -0.00018986f, -0.24266732f, -0.23638649f, 0.45172468f, 0.18819982f, 0.01674403f, -0.06435910f, -0.00069001f,
    0.27787220f, -0.05911024f, -0.17248431f, 0.35270098f, 0.09213177f, -0.44501090f, 0.58729929f, 0.27196211f,
    -0.00000000f, -0.00000000f, -0.00000000f, -0.12527511f, -0.33909267f, 0.42758992f, -0.55396366f, -0.16063729f,
    0.31402928f, 0.14017606f, -0.13867326f, -0.00151043f, -0.22949250f, 0.40504286f, 0.42397583f, 0.00000000f,
    -0.00000000f, -0.00000000f, 0.00000000f, -0.00000000f, -0.00000000f, 0.43702409f, 0.28269836f, 0.16223796f,
    -0.00000000f, -0.00000000f, -0.00000000f, -0.00000000f, -0.00000000f, -0.00000021f, 0.13142893f, -0.51587087f,
    0.29264602f, -0.42873755f, -0.13805251f, 0.51298666f, -0.26107249f, 0.22104365f, 0.50443029f, -0.00000000f,
    -0.00000000f, -0.00000000f, -0.48403537f, 0.03902636f, 0.42289424f, -0.00000000f, -0.00000000f, -0.00000937f,
    0.02685030f, 0.10839269f, 0.39148155f, 0.03633847f, -0.07036992f, 0.22577134f, 0.00000000f, -0.00000000f,
    0.00000000f, -0.00000000f, 0.00000000f, -0.00000000f, -0.12763597f, 0.00990131f, 0.27169219f, -0.00000000f,
    0.00000000f, -0.00000000f, -0.82771862f, 0.23953633f, 0.13724598f, 0.26963413f, 0.20529281f, 0.40174267f,
    -0.71235019f, 0.43481174f, 0.41697484f, 0.49467379f, 0.49357921f, -0.24599104f, 0.56189895f, -0.39646742f,
    -0.07527602f, -0.57683975f, 0.31364006f, 0.34936556f, -0.74030358f, 0.09767244f, -0.12164426f, 0.90885848f,
    -0.44470149f, 0.43525064f, -0.36300978f, 0.41081068f, -0.11398184f, 0.43084693f, -0.21350196f, 0.25929561f,
    -0.47553453f, 0.63872141f, -0.24600944f, 0.00000000f, 0.00000000f, -0.00000000f, -0.72841996f, -0.09000877f,
    0.23182461f, -0.43780667f, 0.57594717f, 0.44702837f, -0.42501044f, 0.18603748f, -0.20197310f, 0.31165746f,
    -0.22653563f, 0.01612358f, 0.30790862f, 0.36979651f, 0.04062771f, 0.61823875f, 0.25679448f, 0.65312117f,
    0.11804303f, -0.21394929f, 0.42779332f, 0.00000000f, 0.00000000f, -0.00000000f, 0.00000000f, 0.00000000f,
    -0.00000000f, 0.06869978f, -0.15225798f, 0.27339560f, -0.00000000f, -0.00000000f, -0.00000044f, 0.18154545f,
    -0.10056717f, 0.15728682f, 0.36379877f, -0.04611840f, 0.08867864f, 0.13599473f, 0.11070018f, 0.38080159f,
    -0.67073023f, 0.08182468f, -0.39303336f, 0.00000000f, 0.00000000f, -0.00000000f, -0.68043524f, 0.47905919f,
    0.52595180f, -0.01821345f, -0.01313728f, -0.00519962f, 0.00341629f, 0.01437696f, 0.08944506f, -0.09748457f,
    0.48520294f, 0.46656233f, 0.29806042f, 0.19805053f, -0.18057394f, -0.78169137f, 0.10950457f, 0.11795028f,
    -0.00287110f, -0.00218495f, -0.00342684f, 0.00000000f, 0.00000000f, -0.00002333f, -0.00000001f, -0.00000000f,
    -0.00000774f, 0.10142313f, 0.30557811f, -0.14113998f, 0.02768880f, -0.03041894f, 0.34689903f, 0.52283829f,
    0.26459423f, 0.32043409f, -0.70208031f, 0.07775137f, 0.24371554f, 0.73516065f, -0.18897276f, -0.17852336f,
    -0.00950993f, 0.50942177f, 0.07681408f, -0.00000000f, -0.00000001f, -0.00009499f, -0.00000000f, -0.00000000f,
    -0.00000052f, -0.00000000f, -0.00000000f, -0.00000000f, -0.49906012f, 0.61947793f, 0.22205856f, 0.64539242f,
    -0.34861818f, 0.61439466f, 0.00000000f, -0.00000000f, -0.00000000f, 0.00000000f, 0.00000000f, -0.00000000f,
    -0.00000000f, -0.00000000f, -0.00001485f, 0.24277058f, -0.19479914f, 0.46479163f, 0.00000000f, 0.00000000f,
    0.00000000f, -0.00000000f, -0.00000000f, -0.00006127f, -0.25726041f, 0.48365310f, 0.49006531f, -0.17083484f,
    -0.39038941f, 0.19174062f, 0.14662403f, -0.29840079f, 0.14543766f, 0.00000000f, 0.00000000f, -0.00000000f,
    -0.00000000f, -0.00000000f, -0.00000000f, 0.65257573f, 0.29872689f, 0.36398244f, -0.00000000f, -0.00000000f,
    -0.00000009f, 0.00000000f, -0.00000000f, 0.00000000f, 0.43814692f, 0.62149501f, -0.15381846f, 0.01418087f,
    -0.12985250f, 0.42655757f, -0.00000000f, -0.00000000f, -0.00000000f, 0.26636520f, 0.09376846f, 0.25962099f,
    0.34348121f, 0.14452869f, 0.35549563f, -0.22028211f, 0.37388098f, -0.09271950f, -0.67702585f, 0.00623333f,
    -0.35015580f, -0.00000000f, 0.00000000f, -0.00001710f, 0.26164451f, 0.08845064f, -0.12161745f, 0.84132105f,
    0.18091241f, 0.28841940f, 0.10323688f, 0.03781287f, 0.21743989f, -0.76401412f, 0.17475282f, 0.40642235f,
    -0.50582439f, 0.01237825f, 0.08326087f, -0.00000161f, -0.00001716f, -0.00020278f, -0.00000000f, 0.00000000f,
    -0.00000000f, 0.64339381f, -0.76391512f, -0.14920712f, 0.00000000f, 0.00000000f, -0.00000000f, 0.33781844f,
    0.10979341f, 0.27695721f, 0.14701104f, 0.16028740f, -0.10490437f, 0.87502295f, -0.13273744f, -0.19178736f,
    0.87452030f, 0.23354085f, 0.33877519f, -0.00000000f, -0.00000002f, -0.00016025f, 0.00000000f, 0.00000000f,
    -0.00000000f, 0.36526182f, 0.09773158f, 0.21808891f, -0.78089094f, -0.21101569f, 0.21876575f, 0.07477482f,
    -0.09515616f, 0.00706065f, 0.33820176f, -0.11185989f, 0.32965708f, -0.00000000f, -0.00000000f, -0.00000013f,
    -0.46914968f, 0.61218095f, -0.01207963f, -0.00000000f, -0.00000000f, -0.00001088f, -0.00087162f, -0.00061779f,
    -0.00290779f, -0.00000000f, -0.00000000f, -0.00000000f, -0.50282156f, -0.00946165f, 0.28393742f, -0.00045793f,
    -0.00030218f, -0.00215080f, -0.00000000f, -0.00000000f, -0.00000000f, 0.31578019f, 0.64224088f, -0.04426776f
};
static const float L0_BIASES[128] = {
    0.51192808f, -0.00027862f, -0.00033162f, 0.53409559f, 0.35569188f, 0.64146531f, 0.32989565f, 0.24641430f,
    -0.00000001f, -0.25738016f, -0.03039410f, 0.00906788f, -0.40695319f, -0.00000000f, -0.00000000f, -0.19408217f,
    -0.00000000f, -0.00000081f, 0.04493969f, 0.50910187f, 0.20371531f, -0.00000000f, 0.24986558f, -0.00002251f,
    0.31339735f, 0.61304778f, -0.00000000f, -0.00000000f, -0.19373938f, -0.00000000f, 0.03721736f, 0.52045774f,
    -0.33831298f, 0.02922793f, 0.32875726f, 0.16829571f, 0.33681095f, -0.36351046f, 0.63708830f, 0.21852720f,
    0.35325941f, -0.00000000f, -0.00029682f, 0.19999287f, 0.56600678f, 0.39206636f, -0.15679578f, -0.27583286f,
    0.20037870f, -0.00000000f, -0.00000000f, 0.16686775f, -0.00000142f, 0.32176164f, 0.28521413f, -0.05721749f,
    0.64914018f, -0.00000000f, 0.17608510f, -0.00450850f, -0.03179348f, 0.43195844f, 0.10725430f, 0.05281840f,
    -0.00299032f, -0.00004626f, -0.00001748f, -0.08813726f, 0.54229814f, -0.25596485f, -0.06654860f, 0.12181006f,
    -0.18653774f, -0.00015807f, -0.00000208f, -0.00000002f, -0.23898570f, -0.05004067f, -0.00000000f, -0.00000000f,
    -0.00003891f, 0.51229650f, -0.00000000f, -0.00010803f, -0.02771435f, 0.11988655f, 0.39023933f, -0.00000000f,
    -0.00000000f, -0.46213272f, -0.00000042f, -0.00000000f, -0.07258186f, -0.11870849f, -0.00000000f, -0.13337740f,
    -0.19749379f, 0.19926766f, 0.61476737f, -0.00004296f, 0.17927031f, -0.39319232f, 0.13122723f, -0.22102764f,
    0.04562829f, -0.00021864f, -0.00000000f, 0.42069536f, -0.00000000f, 0.27071843f, 0.30067125f, 0.09337861f,
    -0.45214725f, -0.00028582f, -0.00000000f, 0.12776004f, 0.41712815f, 0.12210025f, -0.01243813f, -0.00000052f,
    0.43287769f, -0.00001954f, -0.00335459f, -0.00000000f, -0.14263071f, -0.00251495f, -0.00000000f, -0.15014152f
};

/** Layer 1: Linear(128 → 64) */
static const float L1_WEIGHTS[8192] = {
    0.00000000f, 0.00000000f, 0.00000015f, -0.00000000f, -0.00000000f, -0.00000000f, -0.00000000f, 0.00000000f,
    0.00000000f, -0.00000000f, -0.00000000f, -0.00000000f, 0.00000000f, -0.00000000f, -0.00000000f, -0.00000000f,
    0.00000000f, 0.00000000f, 0.00000000f, -0.00000000f, -0.00000000f, -0.00000000f, 0.00000000f, -0.00000000f,
    -0.00000000f, -0.00000000f, -0.00000102f, 0.00000000f, -0.00000000f, 0.00000000f, -0.00000000f, -0.00000000f,
    0.00000000f, -0.00000000f, 0.00000000f, 0.00000000f, -0.00000000f, 0.00000000f, 0.00000000f, -0.00000000f,
    0.00000000f, -0.00000000f, 0.00000000f, -0.00000000f, 0.00000000f, -0.00000000f, 0.00000000f, -0.00000000f,
    -0.00000000f, 0.00000000f, -0.00000000f, 0.00000000f, 0.00000002f, 0.00000000f, 0.00000000f, -0.00000000f,
    0.00000000f, -0.00000000f, 0.00000000f, -0.00000000f, 0.00000000f, -0.00000000f, -0.00000000f, -0.00000000f,
    0.00000000f, 0.00000000f, -0.00000000f, 0.00000000f, -0.00000000f, -0.00000000f, 0.00000000f, -0.00000000f,
    0.00000000f, -0.00000000f, 0.00000000f, -0.00000000f, 0.00000000f, -0.00000000f, 0.00000000f, -0.00000000f,
    -0.00000000f, -0.00000000f, 0.00000000f, -0.00000000f, -0.00000000f, -0.00000000f, 0.00000000f, -0.00000000f,
    -0.00000000f, -0.00000000f, -0.00000000f, 0.00000000f, 0.00000000f, -0.00000000f, 0.00000000f, -0.00000000f,
    -0.00000000f, 0.00000000f, -0.00000000f, -0.00000000f, 0.00000000f, 0.00000000f, 0.00000000f, -0.00000000f,
    0.00000000f, 0.00000000f, 0.00000532f, -0.00000000f, -0.00000000f, -0.00000000f, 0.00000000f, 0.00000000f,
    -0.00000000f, -0.00000000f, -0.00000729f, 0.00000000f, 0.00000000f, -0.00000000f, 0.00000000f, -0.00000000f,
    0.00000000f, 0.00000005f, -0.00000000f, -0.00000000f, -0.00000000f, -0.00000000f, 0.00000000f, 0.00000000f,
    -0.00000002f, 0.00017761f, -0.00000000f, -0.00000003f, -0.00000002f, -0.00000002f, -0.00000002f, -0.00000003f,
    0.00000000f, -0.00000001f, 0.00000000f, 0.00000000f, -0.00000000f, 0.00000112f, -0.00000000f, -0.00000001f,
    0.00000025f, -0.00000000f, -0.00000002f, -0.00000003f, -0.00000003f, 0.00000000f, -0.00000003f, 0.00000000f,
    -0.00000002f, -0.00000002f, 0.00003174f, -0.00000000f, -0.00000001f, -0.00000000f, 0.00000001f, -0.00000002f,
    0.00000000f, -0.00000001f, -0.00000001f, -0.00000003f, -0.00000000f, -0.00000000f, -0.00000003f, -0.00000002f,
    -0.00000002f, 0.00000000f, 0.00000001f, -0.00000003f, -0.00000003f, -0.00000002f, -0.00000001f, -0.00000002f,
    -0.00000002f, -0.00000000f, 0.00000001f, -0.00000002f, -0.00000000f, -0.00000002f, -0.00000002f, -0.00000002f,
    -0.00000002f, 0.00000000f, -0.00000003f, 0.00000000f, -0.00000001f, -0.00000003f, -0.00000001f, 0.00000001f,
    -0.00000000f, 0.00000000f, -0.00000000f, 0.00000000f, -0.00000002f, -0.00000001f, 0.00000001f, -0.00000000f,
    -0.00000000f, -0.00000000f, 0.00000015f, -0.00000003f, 0.00000000f, -0.00000002f, -0.00000000f, -0.00000000f,
    -0.00000000f, -0.00000002f, 0.00000000f, -0.00000248f, -0.00000002f, -0.00000001f, -0.00000002f, -0.00000000f,
    0.00000001f, -0.00000001f, -0.00000000f, -0.00000000f, -0.00000001f, -0.00000002f, -0.00000673f, -0.00000001f,
    -0.00000001f, -0.00000002f, -0.00000001f, 0.00000000f, -0.00000001f, -0.00000001f, -0.00000002f, 0.00000001f,
    0.00000001f, 0.00000000f, -0.00000000f, -0.00000001f, -0.00000000f, -0.00000002f, -0.00000002f, -0.00000000f,
    -0.00000001f, -0.00000000f, 0.00000000f, -0.00000002f, -0.00000003f, -0.00000001f, -0.00000002f, -0.00001565f,
    -0.00000003f, 0.00000020f, -0.00000000f, 0.00000202f, 0.00000000f, 0.00000000f, 0.00000000f, -0.00000001f,
    0.07609133f, -0.00000783f, 0.00000000f, 0.02926494f, 0.09392494f, 0.05145958f, 0.12630139f, 0.03197275f,
    -0.00000000f, -0.06315996f, 0.00377305f, 0.02036890f, -0.06751519f, -0.00000000f, 0.00000000f, -0.03419937f,
    0.00000000f, -0.00000000f, 0.00814299f, 0.14602877f, 0.11268067f, 0.00000000f, 0.09760915f, -0.00000000f,
    0.00552578f, 0.13930966f, -0.00000000f, 0.00000000f, -0.06096302f, 0.00000000f, 0.07710898f, 0.11755340f,
    0.06685662f, -0.10603029f, 0.03898196f, 0.10470294f, 0.09233542f, -0.18733239f, 0.16147833f, 0.06460945f,
    0.12119719f, 0.00000000f, 0.02678020f, 0.13016061f, 0.14540473f, 0.10158560f, -0.05652006f, 0.00152095f,
    0.07366689f, 0.00000000f, 0.00000000f, 0.05705942f, -0.00000000f, 0.10688810f, 0.08823654f, -0.01355067f,
    0.09659106f, -0.00000000f, 0.03107370f, -0.00046819f, 0.02316695f, 0.00888766f, -0.02601784f, 0.04707001f,
    0.00004412f, 0.00000000f, -0.00000000f, 0.04099578f, 0.06760305f, 0.01531872f, 0.02987823f, -0.04745592f,
    -0.05677952f, 0.00000000f, 0.00000000f, 0.00000000f, -0.00880559f, -0.05810014f, -0.00000000f, -0.00000000f,
    0.00000000f, 0.09404794f, -0.00000000f, 0.00000000f, 0.10764327f, 0.06251766f, 0.05660259f, -0.00000000f,
    0.00000000f, -0.11515777f, -0.00000000f, 0.00000000f, -0.09320079f, 0.01708162f, 0.00000000f, -0.01642723f,
    -0.04268192f, 0.08275018f, 0.10803924f, -0.00000000f, 0.07086403f, -0.12441921f, 0.05745704f, 0.03928963f,
    0.01677075f, -0.00001838f, 0.00000000f, 0.03488843f, -0.00000000f, 0.00666390f, 0.11443938f, -0.09877245f,
    -0.17623267f, 0.00000000f, -0.00000000f, -0.01529576f, 0.09333993f, 0.00945122f, 0.05466323f, -0.00000000f,
    0.15256052f, 0.00000000f, 0.00000054f, -0.00000000f, 0.00510139f, -0.00000000f, 0.00000000f, -0.12245324f,
    0.00000746f, -0.00000000f, 0.00000114f, -0.00000169f, 0.00000643f, 0.00000241f, 0.00000893f, 0.00000791f,
    -0.00000000f, 0.00000009f, 0.00000183f, 0.00000009f, -0.00000407f, 0.00000000f, 0.00000000f, -0.00000916f,
    0.00000000f, 0.00000000f, -0.00000223f, -0.00000169f, 0.00000469f, -0.00000000f, 0.00000594f, -0.00000027f,
    0.00000056f, -0.00000412f, -0.00000001f, 0.00000003f, -0.00000044f, -0.00000000f, 0.00000191f, -0.00002368f,
    -0.00000036f, -0.00000896f, 0.00000181f, 0.00000462f, -0.00000061f, -0.00000987f, 0.00000700f, 0.00001005f,
    -0.00000439f, 0.00000000f, -0.00000105f, 0.00000447f, 0.00000090f, 0.00000883f, -0.00000558f, 0.00000846f,
    0.00000794f, -0.00000000f, -0.00000000f, 0.00000591f, 0.00000000f, 0.00000920f, 0.00001047f, 0.00000668f,
    -0.00000153f, 0.00000000f, 0.00000576f, -0.00000000f, -0.00000222f, -0.00001724f, -0.00000060f, -0.00000269f,
    0.00000002f, 0.00000240f, 0.00000900f, 0.00000183f, -0.00000728f, 0.00000313f, -0.00000254f, -0.00000604f,
    -0.00000336f, -0.00000002f, 0.00000000f, -0.00000000f, 0.00000009f, 0.00000861f, 0.00000000f, 0.00000000f,
    -0.00000000f, -0.00001395f, -0.00000000f, -0.00000166f, 0.00000939f, -0.00000067f, 0.00000815f, -0.00000000f,
    0.00000000f, -0.00001148f, -0.00000000f, 0.00000000f, -0.00001002f, -0.00000494f, 0.00000000f, -0.00000722f,
    -0.00000059f, -0.00000326f, -0.00000293f, -0.00000000f, -0.00000699f, -0.00000865f, 0.00000684f, -0.00000236f,
    0.00000158f, 0.00000000f, 0.00000017f, -0.00000508f, -0.00000000f, 0.00000315f, 0.00000308f, -0.00001050f,
    -0.00000604f, 0.00000000f, -0.00000000f, 0.00001109f, 0.00000094f, 0.00000274f, 0.00000562f, 0.00000046f,
    0.00000807f, 0.00000000f, 0.00000000f, 0.00000000f, -0.00000140f, 0.00000000f, -0.00000000f, -0.00000650f,
    0.00774165f, -0.00010906f, -0.00000000f, -0.04269985f, -0.00705815f, -0.00603095f, 0.07070889f, 0.12894082f,
    0.00000000f, -0.12152541f, -0.00205172f, -0.00120510f, 0.15782484f, 0.00000000f, -0.00000000f, 0.05924530f,
    0.00000000f, -0.00000000f, -0.16756512f, -0.01986786f, 0.07750221f, -0.00000000f, 0.02372137f, -0.00000000f,
    0.02139062f, 0.03542574f, 0.00000000f, 0.00000000f, 0.00616588f, 0.00000000f, 0.13837904f, 0.00674500f,
    0.18263015f, -0.08423539f, -0.18612657f, 0.08363086f, 0.10544045f, -0.31908795f, 0.15749362f, -0.11611472f,
    0.21101905f, 0.00000000f, -0.00403072f, 0.16868141f, 0.13089697f, -0.11112437f, 0.08586774f, -0.11014909f,
    -0.05543195f, -0.00000000f, 0.00000000f, -0.08245780f, 0.00000000f, -0.04181230f, -0.05782837f, -0.01521973f,
    0.11932644f, -0.00000000f, 0.11400742f, 0.00461608f, 0.01184655f, 0.00314566f, 0.05314063f, 0.06976941f,
    0.00034337f, 0.00000000f, -0.00000000f, -0.00151584f, -0.03616863f, 0.01696401f, 0.04910109f, -0.16681746f,
    -0.03474541f, 0.00000000f, 0.00000000f, 0.00000000f, 0.23237599f, -0.12333447f, -0.00000000f, 0.00000000f,
    -0.00000000f, -0.05100425f, 0.00000000f, -0.00000000f, 0.13172923f, -0.07438098f, -0.10199984f, -0.00000000f,
    -0.00000000f, -0.15380721f, 0.00000000f, -0.00000000f, -0.07617184f, -0.04580440f, 0.00000000f, 0.00242872f,
    -0.01923483f, 0.11967696f, 0.13023756f, -0.00000000f, -0.00047494f, -0.20349829f, 0.02239252f, 0.08696663f,
    0.01054617f, 0.00000137f, -0.00000000f, -0.31195274f, -0.00000000f, -0.01149076f, -0.01464651f, -0.17745176f,
    -0.20959349f, 0.00000000f, -0.00000000f, -0.08611313f, 0.07111606f, -0.03368440f, -0.11122283f, 0.00000000f,
    0.15825194f, -0.00000000f, -0.00000000f, 0.00000000f, -0.00366697f, 0.00000000f, 0.00000000f, -0.03899533f,
    0.04269893f, -0.00002071f, 0.00000000f, 0.14622709f, 0.05155390f, 0.09507079f, 0.08570121f, 0.02596999f,
    0.00000000f, -0.05348975f, 0.00068005f, 0.01792559f, -0.07990162f, -0.00000000f, 0.00000000f, -0.06358591f,
    0.00000000f, -0.00000000f, 0.05683808f, 0.04084249f, 0.06273654f, -0.00000000f, 0.04345740f, 0.00000000f,
    0.11246118f, 0.06098098f, 0.00000000f, -0.00000000f, -0.05669937f, -0.00000000f, 0.04970668f, 0.04532029f,
    0.04548823f, -0.11973344f, 0.02881209f, 0.09353323f, 0.07618378f, -0.14572237f, 0.14053309f, 0.00614652f,
    0.06298137f, 0.00000000f, 0.01421792f, 0.06689259f, 0.08228393f, 0.08863372f, -0.06864363f, 0.03724529f,
    0.04989358f, -0.00000000f, -0.00000000f, 0.09631290f, 0.00000000f, 0.10403344f, 0.05523673f, -0.01857689f,
    0.07260320f, 0.00000000f, 0.08289379f, -0.00041178f, 0.02429319f, 0.12464937f, -0.03307379f, 0.02407167f,
    -0.00007572f, 0.00000000f, -0.00000000f, 0.01995995f, 0.02373568f, -0.02745687f, 0.01774431f, -0.01741387f,
    -0.07022867f, -0.00000000f, 0.00000000f, 0.00000000f, -0.03313959f, 0.06013379f, 0.00000000f, -0.00000000f,
    -0.00000000f, 0.10962162f, -0.00000000f, 0.00000000f, 0.00019874f, 0.08594216f, 0.08976896f, -0.00000000f,
    -0.00000000f, -0.11766153f, -0.00000000f, -0.00000000f, -0.14235112f, 0.04566431f, 0.00000000f, 0.00841442f,
    0.00010524f, 0.03114726f, 0.09419720f, 0.00000000f, 0.04236828f, -0.13672936f, 0.08417886f, 0.02510752f,
    0.00801298f, -0.00001592f, -0.00000000f, 0.05960828f, 0.00000000f, 0.07695040f, 0.02126554f, -0.08420700f,
    -0.17208883f, 0.00000000f, 0.00000000f, 0.07931613f, 0.15363613f, 0.03442041f, -0.00435470f, -0.00000000f,
    0.11854960f, -0.00000000f, 0.00000003f, -0.00000000f, -0.00046455f, -0.00000000f, 0.00000000f, -0.13788676f,
    -0.00485907f, -0.00000024f, -0.00000000f, -0.00609589f, -0.00398188f, -0.00681476f, -0.00470318f, -0.00493272f,
    0.00000000f, 0.00000003f, 0.00000007f, 0.00000003f, 0.00000004f, 0.00000000f, 0.00000000f, -0.00317515f,
    -0.00000000f, -0.00000005f, -0.00035129f, -0.00580822f, -0.00568080f, 0.00000000f, -0.00324729f, 0.00000000f,
    -0.00674595f, -0.00712053f, -0.00000002f, 0.00000000f, 0.00000009f, -0.00000000f, -0.00000005f, -0.00893422f,
    -0.00000009f, -0.00357171f, -0.00370007f, -0.00245129f, -0.00000003f, -0.00292036f, -0.00508427f, -0.00588203f,
    -0.00083164f, 0.00000000f, 0.00000003f, -0.00581360f, -0.00162283f, -0.00466845f, -0.00146593f, -0.00771868f,
    -0.00521291f, 0.00000000f, 0.00000000f, -0.00336459f, -0.00000000f, -0.00506030f, -0.00555712f, -0.00390744f,
    0.00000003f, -0.00000000f, -0.00446452f, 0.00000000f, -0.00000021f, -0.00829958f, -0.00098511f, 0.00000004f,
    -0.00000000f, 0.00005865f, 0.00000000f, -0.00000021f, -0.00739826f, -0.00490469f, -0.00000002f, -0.00237073f,
    -0.00007122f, 0.00000000f, 0.00000001f, -0.00000000f, -0.00000043f, -0.00677127f, -0.00000000f, -0.00000000f,
    -0.00000000f, -0.00806270f, 0.00000000f, -0.00000000f, -0.00473537f, 0.00000025f, -0.00437646f, 0.00000000f,
    0.00000000f, -0.00446740f, -0.00000000f, -0.00000860f, -0.00379574f, -0.00095847f, 0.00000000f, -0.00222633f,
    -0.00363779f, -0.00059459f, 0.00000001f, -0.00000000f, -0.00175286f, -0.00552711f, -0.00375996f, -0.00000003f,
    0.00000002f, -0.00000000f, 0.00000000f, -0.00208809f, -0.00000000f, -0.00724585f, -0.00343321f, -0.00391610f,
    -0.00613504f, 0.00000000f, 0.00000000f, -0.00587873f, -0.00034870f, -0.00009212f, -0.00400533f, -0.00000000f,
    -0.00430127f, -0.00000000f, 0.00000000f, 0.00000000f, 0.00000003f, 0.00000000f, 0.00000267f, -0.00289496f,
    0.06975900f, -0.00003973f, 0.00000000f, 0.09282016f, -0.00315849f, 0.08277999f, 0.02487637f, 0.10238073f,
    -0.00000000f, -0.03957891f, 0.03533273f, 0.01410850f, -0.02984149f, -0.00000000f, 0.00000000f, -0.04164591f,
    0.00000000f, 0.00000000f, -0.00575967f, 0.01945939f, 0.06366232f, -0.00000000f, 0.06323413f, 0.00000000f,
    0.07212543f, 0.02561251f, -0.00000000f, -0.00000000f, -0.02861500f, -0.00000000f, 0.07828388f, -0.04915292f,
    0.07717435f, -0.16596544f, -0.06347537f, 0.10170381f, 0.07673743f, -0.13104776f, 0.13240902f, -0.04730909f,
    0.06600349f, -0.00000000f, 0.02533028f, 0.10352121f, 0.09615625f, -0.02368494f, -0.04964805f, -0.05843179f,
    -0.04725491f, 0.00000000f, -0.00000000f, -0.01315908f, 0.00000000f, -0.00954038f, -0.02024111f, -0.04581513f,
    0.09937059f, -0.00000000f, 0.06027392f, 0.00053001f, 0.00170697f, 0.07035055f, -0.03709855f, 0.04115907f,
    -0.00013576f, 0.00000000f, 0.00000000f, -0.00148008f, 0.05874246f, -0.05364918f, 0.03195636f, -0.09135991f,
    -0.06641369f, -0.00000000f, -0.00000000f, -0.00000000f, 0.02660911f, -0.11054720f, 0.00000000f, -0.00000000f,
    -0.00000000f, 0.05603676f, -0.00000000f, 0.00000000f, 0.03692927f, 0.03007555f, -0.04268681f, -0.00000000f,
    -0.00000000f, -0.17739283f, -0.00000000f, -0.00000000f, -0.16909461f, -0.00554994f, 0.00000000f, -0.04192924f,
    -0.05333180f, 0.03097618f, 0.12896076f, 0.00000000f, -0.01037985f, -0.19132219f, -0.04413038f, 0.04264952f,
    0.01519583f, 0.00000816f, -0.00000000f, -0.07744183f, -0.00000000f, 0.02656569f, -0.00801512f, -0.12344035f,
    -0.20628612f, 0.00000000f, -0.00000000f, -0.06555639f, 0.11396392f, 0.00447799f, -0.05257298f, 0.00000000f,
    0.14537440f, 0.00000000f, 0.00000000f, 0.00000000f, 0.00534217f, -0.00000000f, 0.00000000f, -0.14392094f,
    0.13955559f, -0.00002046f, -0.00000000f, 0.12605223f, 0.07582881f, 0.13158615f, 0.05406000f, 0.03882375f,
    -0.00000000f, -0.05006792f, 0.00765274f, 0.01612124f, -0.08231981f, -0.00000000f, 0.00000000f, -0.04589592f,
    -0.00000000f, -0.00000000f, 0.05020414f, 0.14604232f, 0.05433014f, -0.00000000f, 0.12087727f, -0.00000000f,
    0.01418802f, 0.13022169f, 0.00000000f, -0.00000000f, -0.05647371f, -0.00000000f, 0.04093627f, 0.10460888f,
    0.03457564f, -0.10045333f, 0.08501718f, 0.02588505f, 0.05962571f, -0.12472478f, 0.10849164f, 0.02624712f,
    0.05767871f, 0.00000000f, 0.00627295f, 0.08257523f, 0.07831280f, 0.03162967f, -0.05923441f, 0.03529146f,
    0.06516728f, 0.00000000f, -0.00000000f, 0.09348511f, 0.00000000f, 0.04436352f, 0.02858047f, -0.00489054f,
    0.06747850f, 0.00000000f, 0.03437925f, -0.00046033f, 0.00636956f, 0.12526417f, -0.02279050f, 0.01781299f,
    -0.00004769f, 0.00000000f, -0.00000000f, 0.02150111f, 0.11894935f, 0.01767249f, 0.01286398f, 0.00133090f,
    -0.06108961f, -0.00000000f, -0.00000000f, 0.00000000f, -0.03952901f, -0.02261187f, -0.00000000f, -0.00000000f,
    0.00000000f, 0.07232384f, 0.00000000f, -0.00000000f, 0.07086617f, 0.06573030f, 0.04212896f, -0.00000000f,
    -0.00000000f, -0.11922860f, -0.00000000f, -0.00000000f, -0.12735365f, 0.02037145f, 0.00000000f, -0.01222704f,
    -0.02171455f, 0.03554556f, 0.07647635f, -0.00000000f, 0.04803516f, -0.10345453f, 0.08998960f, 0.02122634f,
    0.00544504f, -0.00001335f, 0.00000000f, 0.05071512f, -0.00000000f, 0.08034617f, 0.05070049f, -0.06950051f,
    -0.16439573f, 0.00000000f, 0.00000000f, 0.08163913f, 0.08144978f, 0.03615210f, 0.05040608f, -0.00000000f,
    0.06560589f, -0.00000000f, 0.00000002f, -0.00000000f, -0.00212915f, -0.00000000f, 0.00000000f, -0.12545745f,
    -0.00000108f, 0.00000000f, 0.00000000f, -0.00001775f, -0.00000004f, -0.00001394f, -0.00000039f, -0.00000104f,
    0.00000000f, -0.00000000f, 0.00000000f, -0.00000000f, 0.00000000f, 0.00000281f, 0.00000000f, -0.00000000f,
    -0.00000076f, 0.00000000f, 0.00000000f, -0.00001519f, -0.00000527f, -0.00000000f, -0.00000008f, -0.00000000f,
    -0.00001767f, -0.00003413f, -0.00000002f, 0.00000000f, -0.00000000f, -0.00000000f, 0.00000000f, -0.00017988f,
    0.00000000f, -0.00000000f, -0.00000001f, -0.00000000f, 0.00000000f, -0.00000000f, -0.00000141f, -0.00000209f,
    -0.00000000f, 0.00000012f, -0.00000000f, -0.00000576f, -0.00000000f, -0.00000026f, -0.00000000f, -0.00001177f,
    -0.00000183f, 0.00000000f, -0.00000000f, -0.00000002f, 0.00000000f, -0.00000082f, -0.00000093f, -0.00000003f,
    0.00000000f, 0.00000000f, -0.00000112f, -0.00000000f, 0.00000000f, -0.00011384f, -0.00000000f, -0.00000000f,
    -0.00000000f, -0.00000000f, 0.00000000f, -0.00000000f, -0.00004920f, -0.00000002f, -0.00000000f, -0.00000000f,
    -0.00000000f, -0.00000000f, -0.00000000f, 0.00000000f, -0.00000000f, -0.00000727f, -0.00000288f, -0.00000000f,
    -0.00000000f, -0.00009543f, 0.00000000f, -0.00000000f, -0.00000048f, -0.00000000f, -0.00000032f, -0.00000000f,
    -0.00000000f, -0.00000000f, 0.00000000f, 0.00000000f, -0.00000000f, -0.00000000f, -0.00000000f, -0.00000000f,
    -0.00000000f, 0.00000000f, 0.00000000f, -0.00000000f, -0.00000000f, -0.00000000f, -0.00000004f, 0.00000000f,
    0.00000000f, 0.00000000f, 0.00000000f, -0.00000000f, 0.00000000f, -0.00001670f, -0.00000001f, -0.00000000f,
    -0.00000000f, -0.00000000f, -0.00000000f, -0.00000129f, -0.00000000f, 0.00000000f, -0.00000003f, 0.00000000f,
    -0.00000023f, -0.00000282f, 0.00000000f, 0.00000000f, -0.00000000f, 0.00000000f, 0.00000000f, -0.00000000f,
    -0.00000002f, -0.00000000f, 0.00000000f, -0.00000066f, -0.00000000f, -0.00000220f, -0.00000001f, -0.00000003f,
    0.00000000f, -0.00000000f, -0.00000000f, 0.00000000f, -0.00000000f, -0.00000000f, 0.00000000f, -0.00000000f,
    -0.00000000f, 0.00000000f, 0.00000000f, -0.00000037f, -0.00000022f, -0.00000000f, -0.00000000f, -0.00000005f,
    -0.00000215f, -0.00000439f, 0.00000000f, -0.00000000f, -0.00000000f, -0.00000000f, 0.00000000f, -0.00006256f,
    0.00000000f, -0.00000000f, -0.00000000f, -0.00000000f, 0.00000000f, -0.00000000f, -0.00000005f, -0.00000026f,
    -0.00000000f, -0.00000000f, 0.00000000f, -0.00000032f, 0.00000000f, -0.00000001f, -0.00000000f, -0.00000540f,
    -0.00000006f, 0.00000000f, -0.00000000f, -0.00000000f, 0.00000000f, -0.00000004f, -0.00000013f, -0.00000000f,
    0.00000000f, 0.00000051f, -0.00000001f, 0.00000000f, -0.00000000f, -0.00002966f, -0.00000000f, -0.00000000f,
    0.00000000f, 0.00000000f, -0.00000000f, 0.00000000f, -0.00000734f, -0.00000002f, 0.00000000f, -0.00000000f,
    0.00000000f, -0.00000000f, 0.00000000f, 0.00000016f, -0.00000000f, -0.00000142f, 0.00000000f, 0.00000000f,
    -0.00000011f, -0.00002045f, 0.00000000f, -0.00000022f, -0.00000001f, -0.00000000f, -0.00000000f, -0.00000000f,
    0.00000000f, -0.00000000f, -0.00000000f, 0.00000000f, -0.00000000f, -0.00000000f, -0.00000000f, -0.00000000f,
    -0.00000000f, -0.00000000f, 0.00000000f, 0.00003412f, -0.00000000f, -0.00000001f, -0.00000000f, -0.00000000f,
    -0.00000000f, 0.00000000f, 0.00000000f, -0.00000000f, 0.00000000f, -0.00000404f, -0.00000000f, -0.00000000f,
    -0.00000002f, 0.00000348f, -0.00000000f, -0.00000026f, 0.00000000f, 0.00000000f, -0.00000000f, -0.00000000f,
    -0.00000000f, -0.00001493f, -0.00000000f, 0.00000000f, 0.00000000f, -0.00000000f, 0.00000000f, -0.00000000f,
    -0.00000000f, -0.00000000f, 0.00000000f, -0.00000006f, -0.00000000f, -0.00000001f, -0.00000000f, -0.00000000f,
    -0.00000000f, -0.00000000f, -0.00000000f, -0.00000000f, -0.00000000f, -0.00000000f, 0.00000000f, -0.00000000f,
    0.00000000f, 0.00000000f, -0.00000000f, -0.00000006f, -0.00000000f, -0.00000000f, -0.00000000f, 0.00000000f,
    -0.00000002f, -0.00000011f, 0.00000000f, -0.00000000f, -0.00000000f, -0.00000000f, 0.00000000f, -0.00000206f,
    -0.00000000f, -0.00000000f, -0.00000000f, -0.00000000f, 0.00000000f, -0.00000000f, -0.00000000f, -0.00000000f,
    0.00000000f, -0.00000000f, 0.00000000f, -0.00000000f, -0.00000000f, -0.00000000f, 0.00000000f, -0.00000000f,
    -0.00000000f, -0.00000000f, 0.00002034f, -0.00000000f, 0.00000000f, -0.00000000f, -0.00000000f, -0.00000000f,
    -0.00000000f, 0.00000000f, -0.00000000f, 0.00000000f, 0.00000000f, -0.00000093f, 0.00000000f, 0.00000000f,
    0.00000000f, -0.00000000f, 0.00000000f, -0.00000000f, -0.00000023f, 0.00000000f, -0.00000000f, -0.00000000f,
    0.00000000f, 0.00000000f, 0.00000005f, 0.00000000f, -0.00000000f, -0.00000000f, -0.00000000f, -0.00000000f,
    0.00000000f, -0.00000077f, 0.00000000f, 0.00000000f, -0.00000000f, -0.00000000f, -0.00000000f, 0.00000000f,
    0.00000000f, -0.00000000f, -0.00000000f, 0.00000000f, -0.00000000f, -0.00000000f, 0.00000000f, 0.00000000f,
    -0.00000000f, 0.00000000f, 0.00000000f, -0.00000000f, -0.00000000f, -0.00000000f, -0.00000000f, 0.00000000f,
    -0.00000000f, -0.00000000f, 0.00000102f, 0.00000000f, 0.00000000f, -0.00000001f, 0.00000000f, -0.00000000f,
    0.00000000f, -0.00000000f, -0.00000000f, -0.00000000f, 0.00000000f, 0.00000000f, -0.00000000f, -0.00000000f,
    -0.00000000f, -0.00000486f, -0.00000000f, -0.00000000f, -0.00000000f, 0.00000000f, -0.00000000f, -0.00000000f,
    0.11184692f, -0.00002130f, -0.00000000f, 0.09484679f, 0.03069753f, 0.12534735f, 0.04574724f, 0.13571945f,
    0.00000000f, -0.05204275f, 0.01286246f, 0.01913712f, -0.04672055f, 0.00000000f, 0.00000000f, -0.02869097f,
    -0.00000000f, -0.00000000f, 0.02069795f, 0.09787167f, 0.12602776f, 0.00000000f, 0.06256508f, 0.00000000f,
    0.04875291f, 0.14086828f, 0.00000000f, 0.00000000f, -0.04646411f, 0.00000000f, 0.06986164f, 0.03093946f,
    0.06908324f, -0.10814368f, -0.01834836f, 0.08232465f, 0.06953587f, -0.15419035f, 0.10209258f, 0.07488396f,
    0.10112140f, 0.00000000f, 0.02224001f, 0.12104613f, 0.09248472f, 0.02806019f, -0.03965321f, -0.00960494f,
    0.07915285f, 0.00000000f, -0.00000000f, 0.06562310f, -0.00000000f, 0.08649180f, 0.02744996f, 0.06245694f,
    0.08335949f, 0.00000000f, 0.05675161f, -0.00011774f, 0.00151412f, 0.10912731f, -0.01303580f, 0.04023087f,
    0.00003931f, 0.00000000f, -0.00000000f, 0.02984915f, 0.05908796f, -0.01772221f, 0.03332215f, -0.02795545f,
    -0.05104915f, -0.00000000f, -0.00000000f, 0.00000000f, 0.00877233f, -0.05378517f, 0.00000000f, -0.00000000f,
    0.00000000f, 0.05438199f, 0.00000000f, 0.00000000f, 0.04914363f, 0.05736133f, 0.01612517f, -0.00000000f,
    -0.00000000f, -0.14487194f, -0.00000000f, -0.00000000f, -0.11899026f, 0.03200511f, 0.00000000f, 0.00855487f,
    0.00832257f, 0.03349991f, 0.10400271f, 0.00000000f, 0.02232840f, -0.15163147f, 0.09953217f, 0.04099435f,
    0.01600101f, -0.00001734f, 0.00000000f, -0.02612620f, 0.00000000f, 0.06885677f, 0.03477111f, -0.09487240f,
    -0.15675223f, -0.00000000f, 0.00000000f, 0.01758502f, 0.11720886f, 0.01191555f, 0.03806024f, -0.00000000f,
    0.16399834f, 0.00000000f, 0.00000001f, 0.00000000f, 0.00323610f, 0.00000000f, 0.00000000f, -0.11199865f,
    -0.00000000f, -0.00000001f, 0.00000000f, -0.00000114f, -0.00000000f, -0.00000051f, -0.00000000f, -0.00000001f,
    -0.00000000f, 0.00000000f, -0.00000000f, -0.00000000f, -0.00000000f, -0.00000000f, -0.00000000f, -0.00000000f,
    0.00000000f, 0.00000000f, 0.00000000f, -0.00000116f, -0.00000014f, 0.00000000f, -0.00000000f, 0.00000000f,
    -0.00000072f, -0.00000228f, -0.00000000f, -0.00000000f, 0.00000000f, -0.00000000f, 0.00000000f, -0.00003019f,
    0.00000000f, -0.00000000f, -0.00000000f, 0.00000000f, -0.00000000f, 0.00000000f, -0.00000002f, -0.00000000f,
    -0.00000000f, -0.00000000f, 0.00000000f, -0.00000022f, 0.00000000f, -0.00000000f, -0.00000000f, -0.00000032f,
    -0.00000001f, 0.00000000f, 0.00000000f, -0.00000000f, 0.00000000f, -0.00000000f, -0.00000000f, -0.00000000f,
    -0.00000000f, 0.00000000f, -0.00000003f, -0.00000000f, 0.00000000f, -0.00001812f, -0.00000000f, -0.00000000f,
    -0.00000000f, 0.00000000f, -0.00000000f, 0.00000000f, -0.00000422f, -0.00000000f, -0.00000000f, -0.00000000f,
    -0.00000000f, -0.00000000f, -0.00000000f, 0.00000000f, 0.00000000f, -0.00000007f, 0.00000001f, -0.00000000f,
    -0.00000000f, -0.00001080f, 0.00000000f, -0.00000000f, -0.00000000f, 0.00000000f, -0.00000000f, -0.00000000f,
    0.00000000f, 0.00000000f, 0.00000000f, -0.00000000f, -0.00000000f, -0.00000000f, 0.00000000f, 0.00000000f,
    -0.00000000f, -0.00000000f, -0.00000000f, 0.00000000f, -0.00000000f, -0.00000000f, -0.00000000f, -0.00000000f,
    0.00000000f, -0.00000000f, -0.00000000f, -0.00000000f, -0.00000000f, -0.00000051f, -0.00000000f, -0.00000000f,
    -0.00000000f, -0.00000000f, 0.00000000f, -0.00000000f, -0.00000000f, -0.00000000f, -0.00000000f, 0.00000000f,
    -0.00000000f, -0.00000018f, -0.00000002f, 0.00000000f, 0.00000000f, 0.00000000f, -0.00000000f, 0.00000000f,
    0.05466388f, -0.00002608f, 0.00000000f, 0.09346480f, 0.04041816f, 0.02114151f, 0.09595176f, 0.06124087f,
    -0.00000000f, -0.05015988f, 0.00793335f, 0.01789591f, -0.05100104f, 0.00000000f, 0.00000000f, -0.03917394f,
    -0.00000000f, -0.00000000f, 0.01610562f, 0.13275766f, 0.07590424f, 0.00000000f, 0.05787914f, 0.00000000f,
    0.11417787f, 0.02389307f, 0.00000000f, -0.00000000f, -0.04612042f, 0.00000000f, 0.06957207f, 0.07686805f,
    0.06492975f, -0.11081110f, -0.01906079f, 0.07917791f, 0.07677457f, -0.15762416f, 0.15175030f, 0.03288783f,
    0.05404917f, 0.00000000f, 0.01972549f, 0.12521122f, 0.11474160f, 0.08278579f, -0.04679757f, -0.01171187f,
    0.06268220f, -0.00000000f, 0.00000000f, 0.02016311f, -0.00000000f, 0.02223544f, 0.06938733f, -0.02284466f,
    0.11038820f, -0.00000000f, 0.12802897f, -0.00007968f, 0.00783848f, 0.09481067f, -0.02033822f, 0.03890260f,
    -0.00001860f, -0.00000000f, -0.00000000f, 0.02336782f, 0.03523551f, 0.01163450f, 0.02837414f, -0.04089995f,
    -0.05319117f, 0.00000000f, -0.00000000f, 0.00000000f, 0.00328403f, -0.04959690f, -0.00000000f, -0.00000000f,
    -0.00000000f, 0.08757915f, 0.00000000f, 0.00000000f, 0.08995953f, 0.05261750f, 0.08906537f, 0.00000000f,
    -0.00000000f, -0.15001765f, -0.00000000f, -0.00000000f, -0.11909813f, 0.01432948f, 0.00000000f, -0.02551433f,
    0.00794648f, 0.06116091f, 0.10839403f, -0.00000000f, 0.03255801f, -0.15700574f, 0.06720348f, 0.03319074f,
    0.01481014f, -0.00001544f, -0.00000000f, -0.00229527f, -0.00000000f, -0.00913606f, 0.00644777f, -0.09668039f,
    -0.14867313f, -0.00000000f, 0.00000000f, 0.02587871f, 0.11791071f, 0.01243900f, 0.02599602f, -0.00000000f,
    0.10100079f, -0.00000000f, 0.00000000f, 0.00000000f, 0.00369134f, -0.00000000f, 0.00000000f, -0.11613471f,
    0.08317424f, -0.00001709f, -0.00000000f, 0.08736114f, 0.10783479f, 0.11388969f, 0.08932587f, 0.03682879f,
    0.00000000f, -0.05588726f, 0.00934148f, 0.01976315f, -0.06090076f, -0.00000000f, 0.00000000f, -0.03600568f,
    -0.00000000f, -0.00000000f, 0.02573259f, 0.12179610f, 0.06007434f, 0.00000000f, 0.11070056f, -0.00000000f,
    0.00448330f, 0.13944325f, 0.00000000f, 0.00000000f, -0.05336942f, -0.00000000f, 0.06276099f, 0.08303417f,
    0.06306906f, -0.11429767f, 0.04041893f, 0.04375732f, 0.09291513f, -0.17296894f, 0.10473277f, 0.08215748f,
    0.08608105f, 0.00000000f, 0.02238937f, 0.05900329f, 0.10930443f, 0.04489209f, -0.05160503f, 0.00297046f,
    0.01903002f, -0.00000000f, -0.00000000f, 0.01613962f, 0.00000000f, 0.00378282f, -0.00192286f, 0.04130860f,
    0.07001670f, -0.00000000f, 0.07751166f, -0.00029844f, -0.00401980f, 0.09102696f, -0.01760210f, 0.04034922f,
    0.00001046f, -0.00000000f, 0.00000000f, 0.03016907f, 0.13811068f, 0.00543517f, 0.02632955f, -0.02253043f,
    -0.05758008f, 0.00000000f, 0.00000000f, 0.00000000f, -0.00790266f, 0.00538194f, -0.00000000f, 0.00000000f,
    -0.00000000f, 0.11895172f, 0.00000000f, 0.00000000f, 0.06494281f, 0.05761914f, 0.06652027f, 0.00000000f,
    -0.00000000f, -0.13746032f, 0.00000000f, -0.00000000f, -0.12176830f, 0.01747593f, 0.00000000f, -0.00485093f,
    0.01562247f, 0.04722562f, 0.10797565f, -0.00000000f, 0.03438332f, -0.16560940f, 0.06519726f, 0.03908912f,
    0.01074757f, -0.00001808f, 0.00000000f, 0.04464346f, -0.00000000f, 0.06030147f, 0.06676542f, -0.09753621f,
    -0.16412705f, 0.00000000f, 0.00000000f, 0.01650704f, 0.14803436f, 0.01087211f, 0.00490979f, 0.00000000f,
    0.11528000f, 0.00000000f, 0.00000007f, -0.00000000f, 0.00253189f, 0.00000000f, 0.00000000f, -0.11823795f,
    0.10924717f, -0.00002767f, -0.00000000f, 0.08501326f, 0.08319455f, 0.08867555f, 0.05575870f, 0.08449804f,
    -0.00000000f, -0.04783709f, 0.00928492f, 0.01776015f, -0.06333507f, 0.00000000f, 0.00000000f, -0.04487228f,
    0.00000000f, -0.00000000f, 0.03692139f, 0.10279148f, 0.11215727f, -0.00000000f, 0.06518214f, -0.00000000f,
    0.10797923f, 0.03096660f, 0.00000000f, -0.00000000f, -0.04772342f, -0.00000000f, 0.05494869f, 0.00160587f,
    0.05239899f, -0.11503679f, 0.02033927f, 0.05284589f, 0.06272683f, -0.12030186f, 0.09700278f, 0.01252152f,
    0.06082586f, 0.00000000f, 0.01562107f, 0.13590991f, 0.10211258f, 0.01407088f, -0.05115398f, -0.05066723f,
    0.05716557f, -0.00000000f, 0.00000000f, 0.03411520f, 0.00000000f, 0.07399534f, 0.03701911f, 0.05092057f,
    0.06133148f, -0.00000000f, 0.14100054f, -0.00015495f, 0.01178839f, 0.14175591f, -0.01518587f, 0.03057581f,
    -0.00004017f, -0.00000000f, 0.00000000f, 0.01736523f, 0.10824830f, -0.02845432f, 0.02066551f, -0.03038119f,
    -0.06129327f, 0.00000000f, -0.00000000f, 0.00000000f, -0.01391356f, 0.00980935f, -0.00000000f, 0.00000000f,
    -0.00000000f, 0.08752810f, -0.00000000f, 0.00000000f, 0.06882592f, 0.05488124f, 0.05114157f, -0.00000000f,
    0.00000000f, -0.14185619f, 0.00000000f, -0.00000000f, -0.12601900f, 0.00650547f, 0.00000000f, -0.01051921f,
    -0.02948195f, 0.02786775f, 0.08946433f, -0.00000000f, 0.02266914f, -0.15704177f, -0.00031317f, 0.02951737f,
    0.01005788f, -0.00001209f, 0.00000000f, 0.02671948f, -0.00000000f, 0.07970759f, 0.04385102f, -0.08165950f,
    -0.15159582f, -0.00000000f, 0.00000000f, 0.03377881f, 0.08539451f, 0.01435112f, -0.01143046f, 0.00000000f,
    0.11042923f, -0.00000000f, 0.00000000f, 0.00000000f, 0.00147987f, -0.00000000f, 0.00000000f, -0.12511539f,
    0.02659493f, -0.00002924f, -0.00000000f, 0.12924488f, 0.05698994f, 0.09386988f, 0.07058584f, 0.11436310f,
    0.00000000f, -0.03974137f, 0.01730398f, 0.01556619f, -0.04237867f, -0.00000000f, 0.00000000f, -0.03370495f,
    -0.00000000f, 0.00000000f, 0.01864918f, 0.08275557f, 0.12021948f, 0.00000000f, 0.08817578f, -0.00000000f,
    0.00835094f, 0.07425244f, -0.00000000f, -0.00000000f, -0.03685719f, -0.00000000f, 0.04992002f, 0.06784342f,
    0.05464657f, -0.10494607f, -0.00138446f, 0.12261315f, 0.06865142f, -0.12687239f, 0.07189810f, 0.04162109f,
    0.08467845f, 0.00000000f, 0.01292041f, 0.08382459f, 0.09721094f, 0.04311661f, -0.02580572f, -0.05326547f,
    0.04453457f, -0.00000000f, -0.00000000f, 0.00826171f, -0.00000000f, 0.01911564f, 0.00253174f, 0.03503964f,
    0.09860906f, -0.00000000f, 0.06928542f, 0.00002056f, 0.02485522f, 0.05227492f, -0.00874351f, 0.02989561f,
    -0.00000995f, -0.00000000f, 0.00000000f, 0.01664547f, 0.11952127f, 0.00596573f, 0.02157059f, -0.04575470f,
    -0.04792766f, 0.00000000f, 0.00000000f, -0.00000000f, 0.00462794f, -0.00426875f, -0.00000000f, 0.00000000f,
    0.00000000f, 0.08645168f, 0.00000000f, 0.00000000f, 0.06069787f, 0.03484143f, 0.03750760f, -0.00000000f,
    -0.00000000f, -0.13224688f, -0.00000000f, 0.00000000f, -0.10866144f, -0.01259336f, -0.00000000f, 0.00966307f,
    0.01133102f, 0.03893948f, 0.09286015f, -0.00000000f, 0.03713289f, -0.13245161f, 0.03363847f, 0.02849360f,
    0.00999612f, -0.00000191f, -0.00000000f, 0.00089336f, 0.00000000f, 0.00499226f, 0.04203544f, -0.07897783f,
    -0.14883491f, -0.00000000f, -0.00000000f, -0.01737438f, 0.13149260f, 0.00844061f, 0.02854839f, 0.00000000f,
    0.10531085f, 0.00000000f, -0.00000000f, -0.00000000f, 0.00165312f, -0.00000000f, 0.00000000f, -0.10049240f,
    0.07757372f, 0.00004777f, -0.00000000f, 0.02716303f, 0.05713434f, 0.02254940f, 0.02383483f, -0.03096722f,
    -0.00000000f, -0.10219157f, -0.06262866f, 0.03158255f, -0.21320120f, -0.00000000f, 0.00000000f, -0.01651642f,
    -0.00000000f, 0.00000000f, 0.06478228f, 0.00461152f, -0.06310555f, 0.00000000f, -0.05521143f, 0.00000000f,
    0.03450983f, 0.08064676f, 0.00000000f, 0.00000000f, -0.11864927f, 0.00000000f, 0.05128441f, 0.07002570f,
    0.03236714f, 0.04004781f, 0.15494183f, -0.09332681f, 0.04214950f, 0.00522390f, 0.02420620f, 0.04537892f,
    0.00269325f, 0.00000000f, 0.01161954f, -0.07985681f, 0.07102965f, 0.08671593f, -0.01051878f, -0.04487630f,
    -0.01697170f, 0.00000000f, -0.00000000f, 0.02697333f, 0.00000000f, 0.06659088f, 0.06553375f, -0.02492202f,
    0.01754602f, 0.00000000f, -0.12774140f, -0.00250174f, -0.03702257f, -0.03429170f, 0.10316749f, 0.03594745f,
    -0.00050188f, -0.00000000f, 0.00000000f, 0.09538889f, 0.03029436f, -0.03159063f, 0.02648815f, 0.14349291f,
    -0.10637545f, -0.00000000f, -0.00000000f, -0.00000000f, -0.15474166f, -0.00666671f, -0.00000000f, -0.00000000f,
    -0.00000000f, 0.00837811f, -0.00000000f, -0.00000000f, -0.08922452f, 0.07994159f, 0.08879508f, -0.00000000f,
    0.00000000f, -0.11758736f, 0.00000000f, -0.00000000f, -0.04668971f, -0.09395531f, 0.00000000f, -0.04234425f,
    -0.04776912f, 0.01188764f, 0.02997418f, -0.00000000f, 0.06202761f, -0.04257865f, -0.01370305f, 0.03491500f,
    0.01419609f, 0.00000410f, -0.00000000f, 0.25251439f, -0.00000000f, -0.00858164f, 0.04073378f, 0.15189418f,
    -0.06122948f, -0.00000000f, 0.00000000f, 0.03617723f, -0.01625838f, 0.03382446f, 0.00116027f, -0.00000000f,
    0.00779137f, -0.00000000f, 0.00008661f, 0.00000000f, 0.00796345f, -0.00000000f, -0.00000000f, -0.11294853f,
    -0.07717098f, -0.00014499f, 0.00000000f, 0.07686347f, -0.06936973f, -0.02623465f, 0.14818394f, 0.15901229f,
    -0.00000000f, -0.18043849f, 0.01840816f, 0.00352826f, 0.29039142f, -0.00000000f, -0.00000000f, 0.05553406f,
    -0.00000000f, 0.00000000f, -0.24543914f, 0.06319250f, 0.07426986f, 0.00000000f, 0.14325805f, -0.00000000f,
    -0.03605258f, -0.02270559f, 0.00000000f, 0.00000000f, 0.00539837f, -0.00000000f, 0.27583307f, -0.10575873f,
    0.33823249f, -0.09290549f, -0.30389509f, 0.25459054f, 0.23721956f, -0.54261708f, 0.10411798f, -0.17575718f,
    0.34360209f, -0.00000000f, 0.08302863f, 0.14962783f, 0.21224257f, -0.15032822f, 0.13342898f, -0.16210264f,
    -0.07694657f, 0.00000000f, -0.00000000f, -0.05719040f, 0.00000000f, -0.08261154f, -0.16193880f, -0.05098311f,
    0.25321445f, -0.00000000f, 0.22909415f, 0.00544763f, 0.02744015f, 0.10727855f, 0.05856818f, 0.15506487f,
    0.00167888f, -0.00000000f, -0.00000000f, -0.00000000f, 0.00305682f, -0.03536550f, 0.13382749f, -0.28227007f,
    -0.00716466f, -0.00000000f, 0.00000000f, 0.00000000f, 0.44097218f, -0.24942294f, -0.00000000f, -0.00000000f,
    0.00000000f, -0.17068814f, 0.00000000f, 0.00000000f, 0.11405455f, -0.05703288f, -0.05963698f, 0.00000000f,
    0.00000000f, -0.24751188f, 0.00000000f, -0.00000000f, -0.06714219f, -0.06190096f, -0.00000000f, -0.02831707f,
    -0.05304484f, 0.20036843f, 0.26723456f, -0.00000000f, 0.00237646f, -0.35334578f, -0.04891375f, 0.17187577f,
    0.06912028f, -0.00002642f, 0.00000000f, -0.51961946f, 0.00000000f, -0.06061003f, 0.00673279f, -0.30525729f,
    -0.36435306f, -0.00000000f, 0.00000000f, -0.07489695f, 0.16117649f, -0.04753742f, -0.18591836f, -0.00000000f,
    0.27911925f, -0.00000000f, -0.00000006f, 0.00000000f, 0.04045646f, 0.00000000f, -0.00000000f, -0.00638263f,
    0.01609161f, -0.00006432f, 0.00000000f, 0.07668161f, -0.08999882f, 0.04516064f, 0.14878169f, 0.26356936f,
    -0.00000000f, -0.09917778f, 0.12411966f, 0.05909517f, 0.23148918f, 0.00000000f, -0.00000000f, -0.07292926f,
    0.00000000f, 0.00000000f, -0.24619277f, 0.16318704f, 0.16522536f, 0.00000000f, 0.22721533f, -0.00000000f,
    -0.00079623f, 0.01942352f, -0.00000000f, -0.00000000f, 0.02103963f, -0.00000000f, 0.32427254f, 0.00232498f,
    0.41223687f, -0.34097514f, -0.41299859f, 0.27674618f, 0.28063422f, -0.59160674f, 0.23686665f, -0.29473579f,
    0.41962516f, -0.00000000f, 0.15478204f, 0.22059806f, 0.27298814f, -0.19846779f, 0.00369927f, -0.28820905f,
    -0.04774591f, -0.00000000f, -0.00000000f, -0.03316609f, 0.00000000f, -0.11175085f, -0.22794780f, -0.07419999f,
    0.32993874f, 0.00000000f, 0.27717096f, 0.00677549f, -0.00349326f, 0.05808761f, -0.02377515f, 0.23339452f,
    0.00116895f, -0.00000000f, -0.00000000f, -0.00000000f, 0.00939321f, -0.18728037f, 0.19579296f, -0.35626188f,
    -0.06404685f, -0.00000000f, -0.00000000f, -0.00000000f, 0.48965901f, -0.36720863f, 0.00000000f, -0.00000000f,
    -0.00000000f, -0.11446609f, 0.00000000f, 0.00000000f, 0.19555473f, -0.01975110f, -0.08073290f, -0.00000000f,
    0.00000000f, -0.52755946f, -0.00000000f, -0.00000000f, -0.30805638f, -0.06445885f, 0.00000000f, -0.16583169f,
    -0.19106124f, 0.24229628f, 0.31381232f, 0.00000000f, -0.14084321f, -0.60643220f, -0.05775364f, 0.23462319f,
    0.12479103f, 0.00000896f, 0.00000000f, -0.58066928f, -0.00000000f, -0.17786936f, -0.04176921f, -0.41456097f,
    -0.64433569f, 0.00000000f, 0.00000000f, -0.19004293f, 0.22539729f, -0.07736417f, -0.25458300f, 0.00000000f,
    0.33033460f, 0.00000000f, -0.00000240f, 0.00000000f, 0.09564182f, -0.00000000f, -0.00000000f, -0.23068944f,
    -0.00000000f, -0.00034368f, 0.00000000f, -0.00000000f, -0.00000000f, -0.00000000f, -0.00000000f, -0.00000000f,
    0.00000013f, -0.00000000f, 0.00000000f, -0.00000000f, 0.00000000f, 0.00000000f, 0.00000000f, -0.00000000f,
    0.00000000f, 0.00000000f, -0.00000000f, -0.00000000f, -0.00000000f, 0.00000000f, -0.00000000f, -0.00000000f,
    -0.00000000f, -0.00000000f, -0.00000000f, 0.00000000f, 0.00000000f, 0.00000000f, 0.00000000f, -0.00000000f,
    0.00000000f, 0.00000000f, -0.00000000f, -0.00000000f, 0.00000000f, -0.00000000f, -0.00000000f, -0.00000000f,
    -0.00000000f, -0.00005545f, 0.00000000f, -0.00000000f, -0.00000000f, -0.00000000f, 0.00000000f, -0.00000000f,
    -0.00000000f, 0.00000000f, -0.00000000f, -0.00000000f, -0.00000000f, -0.00000000f, -0.00000000f, -0.00000000f,
    -0.00000000f, -0.00000000f, -0.00000000f, 0.00000000f, -0.00000000f, -0.00000000f, -0.00000000f, 0.00000000f,
    0.00000000f, -0.00000000f, 0.00000000f, -0.00000000f, -0.00000000f, -0.00000000f, 0.00000000f, -0.00000000f,
    -0.00000000f, -0.00005960f, -0.00000001f, 0.00000398f, 0.00000000f, -0.00000000f, -0.00000000f, -0.00000000f,
    -0.00000000f, -0.00000000f, 0.00000000f, -0.00000001f, -0.00000000f, -0.00000000f, -0.00000000f, 0.00000000f,
    0.00000000f, -0.00000000f, -0.00000000f, -0.00000000f, 0.00000000f, -0.00000000f, 0.00000000f, -0.00000000f,
    -0.00000000f, -0.00000000f, -0.00000000f, 0.00000000f, -0.00000000f, -0.00000000f, -0.00000000f, 0.00000000f,
    0.00000000f, 0.00000000f, -0.00000000f, -0.00000000f, 0.00000000f, -0.00000000f, -0.00000000f, -0.00000000f,
    -0.00000000f, -0.00000000f, 0.00000000f, -0.00000000f, -0.00000000f, -0.00000000f, -0.00000000f, -0.00000000f,
    -0.00000000f, 0.00000020f, -0.00000000f, 0.00000000f, 0.00000000f, 0.00000000f, 0.00000001f, -0.00000000f,
    -0.00000000f, -0.00000000f, 0.00000000f, -0.00000001f, -0.00000000f, -0.00000000f, -0.00000000f, -0.00000000f,
    0.00000000f, 0.00000000f, -0.00000000f, -0.00000000f, 0.00000000f, -0.00000000f, -0.00000000f, -0.00000000f,
    -0.00000000f, 0.00000000f, 0.00000000f, -0.00000001f, -0.00000000f, -0.00000000f, -0.00000000f, -0.00000000f,
    -0.00000001f, -0.00000003f, -0.00000000f, -0.00000000f, 0.00000000f, -0.00000000f, -0.00000000f, -0.00000096f,
    -0.00000000f, -0.00000000f, -0.00000000f, -0.00000000f, 0.00000000f, -0.00000000f, -0.00000000f, -0.00000000f,
    -0.00000000f, 0.00000000f, 0.00000000f, -0.00000000f, -0.00000000f, -0.00000000f, -0.00000000f, -0.00000000f,
    -0.00000000f, 0.00000000f, -0.00000000f, -0.00000000f, -0.00000000f, -0.00000000f, -0.00000000f, -0.00000000f,
    0.00000000f, 0.00000000f, -0.00000000f, -0.00000000f, -0.00000000f, -0.00000038f, 0.00000000f, -0.00000000f,
    0.00000000f, -0.00000000f, 0.00000000f, 0.00000000f, -0.00000007f, -0.00000000f, -0.00000000f, -0.00000000f,
    0.00000000f, 0.00004970f, 0.00000000f, -0.00000000f, 0.00000000f, -0.00000000f, 0.00000000f, -0.00000000f,
    0.00000000f, -0.00000026f, 0.00000000f, -0.00000000f, -0.00000000f, -0.00000000f, -0.00000000f, -0.00000000f,
    -0.00000000f, -0.00000000f, 0.00000000f, 0.00000381f, 0.00000000f, -0.00000000f, -0.00000542f, 0.00000000f,
    -0.00000000f, 0.00000000f, 0.00000000f, -0.00000000f, 0.00000000f, -0.00000000f, -0.00000000f, 0.00000000f,
    -0.00000000f, 0.00000002f, -0.00000000f, 0.00000000f, -0.00000000f, -0.00000000f, -0.00000000f, -0.00000000f,
    -0.00000000f, -0.00000000f, 0.00000000f, -0.00000000f, -0.00000000f, 0.00000000f, -0.00000000f, 0.00000460f,
    -0.00000000f, -0.00000000f, 0.00000000f, -0.00000000f, 0.00000000f, 0.00000000f, 0.00000000f, -0.00000000f,
    0.00000000f, 0.00000000f, -0.00000018f, 0.00000000f, -0.00000000f, 0.00000000f, -0.00000000f, 0.00000000f,
    -0.00000000f, -0.00000000f, 0.00000000f, -0.00000000f, 0.00000000f, -0.00000000f, 0.00000000f, 0.00000000f,
    -0.00000040f, -0.00000000f, 0.00000000f, 0.00000000f, 0.00000000f, -0.00000000f, 0.00000000f, -0.00000000f,
    0.00000000f, 0.00000000f, 0.00000000f, -0.00000000f, 0.00000000f, -0.00000000f, -0.00000000f, -0.00000000f,
    0.00000000f, 0.00000000f, -0.00000000f, -0.00000000f, -0.00000000f, 0.00000000f, 0.00000000f, -0.00000000f,
    0.00000000f, 0.00000000f, -0.00000000f, 0.00000000f, -0.00000000f, -0.00000000f, -0.00000000f, 0.00000000f,
    0.00000000f, -0.00000000f, 0.00000000f, -0.00000000f, -0.00000000f, -0.00000000f, -0.00000000f, -0.00000000f,
    0.00000000f, -0.00000000f, 0.00000000f, 0.00000000f, 0.00000000f, -0.00000000f, 0.00000000f, 0.00000000f,
    0.00000000f, -0.00000000f, 0.00000000f, 0.00000000f, 0.00000000f, -0.00000000f, 0.00000000f, 0.00000000f,
    0.00000000f, -0.00000000f, 0.00000000f, -0.00000000f, -0.00000000f, 0.00000000f, 0.00000000f, -0.00000000f,
    0.00000076f, -0.00000000f, -0.00000000f, -0.00000000f, 0.00000000f, -0.00000000f, -0.00000000f, 0.00000000f,
    -0.00000000f, -0.00000000f, -0.00000000f, 0.00000001f, 0.00000000f, 0.00000000f, -0.00000738f, 0.00000000f,
    -0.00000000f, 0.00000000f, 0.00000000f, -0.00002304f, 0.00000000f, -0.00000000f, -0.00000000f, 0.00000000f,
    -0.00000000f, 0.00000000f, -0.00000000f, 0.00000000f, -0.00000000f, 0.00000000f, -0.00000000f, 0.00000000f,
    -0.00000000f, -0.00000000f, -0.00000000f, -0.00000000f, -0.00000000f, -0.00000000f, -0.00000000f, 0.00000000f,
    -0.00000000f, 0.00000000f, -0.00000000f, 0.00000000f, 0.00000000f, -0.00000000f, -0.00000000f, 0.00000000f,
    -0.04630260f, 0.00002462f, 0.00000000f, -0.01558272f, 0.01681560f, -0.02876903f, 0.02319068f, 0.08388325f,
    0.00000000f, 0.05511257f, 0.02461289f, -0.01392299f, 0.08525083f, 0.00000000f, -0.00000000f, 0.05703755f,
    0.00000000f, -0.00000000f, -0.01055289f, -0.00831716f, 0.09618340f, -0.00000000f, 0.06875247f, 0.00000000f,
    0.05899888f, 0.03441459f, 0.00000000f, -0.00000000f, 0.06213972f, 0.00000000f, -0.02942659f, 0.09375025f,
    -0.04116019f, 0.03775157f, -0.03271903f, 0.05167592f, -0.02426242f, 0.06457423f, 0.03374162f, 0.04225432f,
    -0.00224201f, 0.00000000f, -0.01063970f, 0.09144454f, -0.02630349f, 0.00393087f, 0.04626416f, 0.11530054f,
    0.00835450f, 0.00000000f, -0.00000000f, 0.05251056f, -0.00000000f, 0.01024639f, 0.03626347f, 0.07257184f,
    0.00190109f, -0.00000000f, 0.05423995f, 0.00051035f, 0.04398118f, 0.03631224f, -0.00930186f, -0.02461065f,
    0.00003554f, 0.00000000f, -0.00000000f, -0.02950463f, 0.02812880f, 0.07146542f, -0.01859053f, -0.01153479f,
    0.02413299f, 0.00000000f, -0.00000000f, -0.00000000f, 0.02848190f, 0.08164437f, 0.00000000f, 0.00000000f,
    -0.00000000f, 0.05812658f, -0.00000000f, -0.00000000f, 0.09383979f, -0.02512686f, -0.02883035f, 0.00000000f,
    0.00000000f, 0.12121184f, -0.00000000f, 0.00000000f, 0.07226086f, 0.06949040f, -0.00000000f, 0.06323335f,
    0.06328084f, 0.00921676f, -0.00499018f, -0.00000000f, 0.01262060f, 0.09826470f, 0.02765937f, -0.02274018f,
    -0.01208779f, 0.00001440f, -0.00000000f, -0.07495923f, 0.00000000f, 0.01238300f, -0.01358982f, -0.00826379f,
    0.11268765f, -0.00000000f, -0.00000000f, 0.00564837f, -0.01531100f, 0.01264407f, 0.05448904f, 0.00000000f,
    0.03205265f, 0.00000000f, -0.00000004f, 0.00000000f, -0.00734821f, 0.00000000f, -0.00000000f, 0.07942574f,
    -0.00192482f, 0.00000000f, 0.00000000f, -0.00333162f, -0.00076845f, -0.00306479f, -0.00158012f, -0.00203037f,
    0.00000000f, 0.00007199f, -0.00010567f, 0.00007558f, -0.00016958f, -0.00000000f, -0.00000000f, 0.00039097f,
    0.00000000f, 0.00000000f, 0.00050358f, -0.00329295f, -0.00269681f, 0.00000000f, -0.00130756f, -0.00000000f,
    -0.00320042f, -0.00361128f, 0.00000000f, 0.00000087f, 0.00014280f, -0.00000000f, -0.00000904f, -0.00466287f,
    0.00011654f, 0.00056162f, -0.00032724f, -0.00060940f, -0.00009676f, 0.00050744f, -0.00209689f, -0.00207599f,
    0.00057461f, 0.00000000f, 0.00007320f, -0.00276518f, 0.00011337f, -0.00130201f, 0.00045214f, -0.00286040f,
    -0.00212711f, 0.00000000f, -0.00000000f, -0.00075899f, 0.00000006f, -0.00174430f, -0.00172620f, -0.00079968f,
    -0.00029413f, -0.00000000f, -0.00217127f, 0.00000000f, -0.00022265f, -0.00441498f, 0.00039975f, 0.00006030f,
    -0.00000000f, 0.00000000f, -0.00000000f, -0.00005280f, -0.00384096f, -0.00046149f, 0.00003389f, 0.00054867f,
    -0.00031169f, 0.00000000f, 0.00000000f, 0.00000000f, 0.00007409f, -0.00264362f, -0.00000000f, -0.00000000f,
    0.00000000f, -0.00424949f, -0.00000000f, 0.00000000f, -0.00170682f, -0.00032311f, -0.00145718f, -0.00000000f,
    -0.00000002f, 0.00040452f, -0.00000000f, 0.00000000f, 0.00054255f, 0.00050999f, 0.00000000f, 0.00037170f,
    -0.00018841f, 0.00053622f, 0.00009142f, -0.00000000f, 0.00048558f, 0.00020504f, -0.00083252f, 0.00005544f,
    -0.00005193f, -0.00000063f, -0.00000000f, 0.00035106f, -0.00000033f, -0.00310026f, -0.00033579f, 0.00049621f,
    0.00005360f, -0.00000000f, -0.00000002f, -0.00185160f, 0.00048360f, 0.00015425f, -0.00070846f, 0.00000000f,
    -0.00149586f, 0.00000794f, -0.00000023f, -0.00000000f, 0.00004167f, 0.00000000f, 0.00000000f, 0.00057103f,
    -0.02474432f, -0.00006193f, 0.00000000f, 0.06961521f, -0.07175982f, 0.08728144f, 0.15237804f, 0.26964435f,
    -0.00000000f, -0.11650493f, 0.10704201f, 0.04427040f, 0.26541626f, 0.00000000f, -0.00000000f, -0.05225680f,
    0.00000000f, 0.00000000f, -0.27615353f, 0.12829956f, 0.12881279f, 0.00000000f, 0.18086268f, -0.00000000f,
    0.01998096f, 0.00048077f, -0.00000000f, -0.00000000f, 0.01436608f, 0.00000000f, 0.31791863f, -0.05087525f,
    0.41382131f, -0.28940466f, -0.41455027f, 0.28159308f, 0.26907691f, -0.60653669f, 0.23967463f, -0.26602453f,
    0.43077266f, -0.00000000f, 0.13434257f, 0.23413795f, 0.26445514f, -0.22273187f, 0.03727636f, -0.26756212f,
    -0.10461732f, -0.00000000f, -0.00000000f, -0.05769739f, 0.00000000f, -0.10409460f, -0.22205117f, -0.08399650f,
    0.30645964f, 0.00000000f, 0.28485394f, 0.00653767f, -0.01280787f, 0.10167541f, -0.00979779f, 0.22459413f,
    0.00176627f, -0.00000000f, -0.00000000f, -0.00000000f, 0.00248780f, -0.18128060f, 0.18470682f, -0.36529914f,
    -0.02226088f, -0.00000000f, -0.00000000f, -0.00000000f, 0.51555824f, -0.38824046f, -0.00000000f, 0.00000000f,
    -0.00000000f, -0.10647333f, -0.00000000f, 0.00000000f, 0.19084810f, -0.05749767f, -0.11828338f, -0.00000000f,
    0.00000000f, -0.49875966f, -0.00000000f, -0.00000000f, -0.24609302f, -0.07794321f, 0.00000000f, -0.15990323f,
    -0.18943888f, 0.25429660f, 0.29230237f, -0.00000000f, -0.12947141f, -0.58911997f, -0.05013045f, 0.23233846f,
    0.11798200f, -0.00000224f, 0.00000000f, -0.59781522f, -0.00000000f, -0.17582025f, -0.01268225f, -0.41649485f,
    -0.62359202f, 0.00000000f, 0.00000000f, -0.19712463f, 0.20601217f, -0.06246660f, -0.25409442f, 0.00000000f,
    0.30802390f, 0.00000000f, -0.00000174f, 0.00000000f, 0.09054714f, -0.00000000f, -0.00000000f, -0.16803570f,
    0.13554323f, 0.00010614f, -0.00000000f, 0.11113197f, 0.10885488f, 0.11564836f, 0.04288344f, -0.02538876f,
    0.00000000f, 0.00532289f, -0.00459805f, -0.00641379f, -0.04904327f, 0.00000000f, 0.00000000f, 0.04325289f,
    -0.00000000f, 0.00000000f, 0.05733421f, 0.06905722f, 0.04647111f, 0.00000000f, -0.00237839f, -0.00000000f,
    0.11667898f, 0.15312213f, -0.00000000f, 0.00000000f, -0.01582833f, -0.00000000f, -0.03170365f, 0.17610337f,
    -0.07594035f, 0.14979233f, 0.15421844f, -0.06603494f, -0.03104796f, 0.10585845f, 0.02947763f, 0.15849347f,
    -0.02434083f, 0.00000000f, -0.00966092f, -0.01075870f, 0.00362414f, 0.14900057f, 0.04311359f, 0.12382299f,
    0.12973890f, -0.00000000f, -0.00000000f, 0.09206371f, -0.00000000f, 0.13129474f, 0.14586495f, 0.05465079f,
    -0.03389310f, -0.00000000f, -0.05995850f, -0.00091153f, 0.00851933f, 0.09703907f, 0.06330343f, -0.02429481f,
    0.00005409f, -0.00000000f, -0.00000000f, 0.02457363f, 0.14992647f, 0.06137465f, -0.01811435f, 0.12772797f,
    0.04098948f, -0.00000000f, -0.00000000f, -0.00000000f, -0.08277682f, 0.17559735f, 0.00000000f, -0.00000000f,
    0.00000000f, 0.19138901f, 0.00000000f, -0.00000000f, -0.00948710f, 0.03886420f, 0.14244148f, 0.00000000f,
    0.00000000f, 0.10842127f, -0.00000000f, -0.00000000f, 0.13944922f, 0.00969652f, -0.00000000f, 0.03001460f,
    0.04384974f, 0.00512318f, -0.02796149f, 0.00000000f, 0.07684189f, 0.13899939f, 0.08471815f, -0.02299055f,
    -0.01125886f, -0.00001616f, -0.00000000f, 0.15665345f, 0.00000000f, 0.16042297f, 0.08773988f, 0.15177278f,
    0.14594617f, -0.00000000f, 0.00000000f, 0.12348824f, -0.02350675f, 0.02668242f, 0.08639808f, -0.00000000f,
    -0.02622038f, 0.00000000f, 0.00000000f, -0.00000000f, -0.00614049f, 0.00000000f, -0.00000000f, 0.11013330f,
    0.05856754f, -0.00002560f, -0.00000000f, -0.05731631f, 0.14863744f, 0.06193573f, 0.03582139f, -0.06614235f,
    -0.00000000f, 0.13484350f, -0.09544975f, -0.06156353f, 0.14454529f, -0.00000000f, -0.00000000f, 0.19211140f,
    0.00000000f, 0.00000000f, 0.09021141f, -0.09771843f, -0.03240705f, -0.00000000f, -0.10393649f, 0.00000000f,
    0.10855467f, 0.05052723f, 0.00000000f, -0.00000000f, 0.06103134f, 0.00000000f, -0.27880016f, 0.15555516f,
    -0.26935071f, 0.30307603f, 0.25181463f, -0.18260817f, -0.24867506f, 0.37865952f, -0.09762704f, 0.25265583f,
    -0.15444872f, 0.00000000f, -0.12780294f, -0.05922343f, -0.23532179f, 0.18942501f, 0.13609429f, 0.30336630f,
    0.12657921f, -0.00000000f, 0.00000000f, 0.10959356f, -0.00000000f, 0.16467747f, 0.19646692f, 0.19074753f,
    -0.26493490f, -0.00000000f, -0.16264656f, -0.00054496f, 0.12337378f, 0.10762598f, 0.10373327f, -0.18976212f,
    0.00077685f, 0.00000000f, 0.00000000f, -0.05010064f, 0.04542188f, 0.24014400f, -0.16010922f, 0.23859072f,
    0.22433257f, 0.00000000f, 0.00000000f, 0.00000000f, -0.05315489f, 0.33126453f, -0.00000000f, -0.00000000f,
    0.00000000f, 0.17400992f, 0.00000000f, 0.00000000f, 0.02364579f, -0.08720686f, 0.11062685f, -0.00000000f,
    -0.00000000f, 0.37785318f, 0.00000000f, 0.00000000f, 0.31458232f, 0.12543742f, -0.00000000f, 0.20012817f,
    0.24938476f, -0.04597798f, -0.28692481f, 0.00000000f, 0.13655168f, 0.40930852f, 0.16432126f, -0.18246792f,
    -0.10454328f, -0.00003471f, -0.00000000f, 0.25911328f, 0.00000000f, 0.17490681f, 0.08343536f, 0.26506835f,
    0.42561531f, -0.00000000f, -0.00000000f, 0.20871224f, -0.22287722f, 0.07844975f, 0.23360598f, 0.00000000f,
    -0.12334852f, -0.00000000f, -0.00010836f, 0.00000000f, -0.06653439f, 0.00000000f, 0.00000000f, 0.33267847f,
    -0.00000000f, -0.00000000f, -0.00000003f, 0.00000000f, 0.00000000f, -0.00000000f, 0.00000000f, 0.00000000f,
    0.00000000f, -0.00000000f, 0.00000000f, 0.00000000f, -0.00000000f, -0.00000000f, 0.00000000f, 0.00000000f,
    -0.00000000f, 0.00000000f, -0.00000000f, -0.00000000f, -0.00000000f, -0.00000000f, -0.00000000f, -0.00000000f,
    -0.00000000f, 0.00000000f, -0.00000021f, -0.00000000f, 0.00000000f, -0.00000000f, 0.00000000f, -0.00000000f,
    0.00000000f, -0.00000000f, 0.00000000f, -0.00000000f, -0.00000000f, 0.00000000f, 0.00000000f, -0.00000000f,
    -0.00000000f, -0.00000000f, -0.00000000f, 0.00000000f, 0.00000000f, 0.00000000f, -0.00000000f, -0.00000000f,
    -0.00000000f, -0.00000000f, -0.00000000f, 0.00000000f, -0.00000000f, 0.00000000f, 0.00000000f, -0.00000000f,
    -0.00000000f, 0.00000943f, -0.00000000f, 0.00000000f, 0.00000000f, 0.00000000f, -0.00000000f, 0.00000000f,
    -0.00000000f, -0.00000000f, -0.00000000f, -0.00000000f, -0.00000000f, 0.00000000f, 0.00000000f, 0.00000000f,
    0.00000000f, 0.00000000f, -0.00000000f, 0.00002264f, -0.00000000f, 0.00000000f, -0.00000000f, 0.00000005f,
    0.00000000f, 0.00000000f, -0.00000000f, 0.00000000f, -0.00000000f, -0.00000000f, 0.00000000f, -0.00000000f,
    -0.00000000f, 0.00000000f, -0.00000000f, 0.00000000f, 0.00000000f, 0.00000000f, 0.00000000f, 0.00000000f,
    -0.00000000f, -0.00000000f, 0.00000000f, -0.00000000f, -0.00000000f, -0.00000000f, -0.00000000f, -0.00000000f,
    -0.00000000f, 0.00000000f, 0.00000000f, 0.00000000f, 0.00000000f, 0.00000000f, -0.00000000f, 0.00000000f,
    0.00000000f, -0.00000000f, 0.00000689f, -0.00000000f, -0.00000000f, -0.00000000f, 0.00000000f, 0.00000000f,
    -0.00000000f, 0.00000000f, -0.00000000f, -0.00000000f, -0.00000000f, -0.00000000f, -0.00000000f, -0.00000000f,
    0.03673229f, -0.00001756f, 0.00000000f, 0.12215178f, 0.06485892f, 0.13043791f, 0.04409523f, 0.14377007f,
    0.00000000f, -0.06182877f, 0.01038465f, 0.02394119f, -0.07298145f, -0.00000000f, 0.00000000f, -0.06392361f,
    -0.00000000f, -0.00000000f, 0.03385483f, 0.03436626f, 0.11395766f, 0.00000000f, 0.08245247f, 0.00000000f,
    0.02021347f, 0.05265812f, 0.00000000f, 0.00000000f, -0.05560810f, 0.00000000f, 0.09290519f, 0.11062342f,
    0.07724085f, -0.12535776f, -0.00671940f, 0.09015565f, 0.08326569f, -0.18763006f, 0.08247151f, -0.02704987f,
    0.07778361f, 0.00000000f, 0.03578017f, 0.03752786f, 0.15805621f, 0.04413337f, -0.05947918f, 0.01961492f,
    0.06928493f, 0.00000000f, 0.00000000f, 0.06317849f, 0.00000000f, 0.06165046f, 0.01038007f, -0.02810118f,
    0.13387528f, -0.00000000f, 0.12231988f, -0.00018486f, 0.02646432f, 0.14369227f, -0.02676741f, 0.05363472f,
    -0.00006157f, -0.00000000f, -0.00000000f, 0.02747437f, 0.07232956f, 0.01742517f, 0.03699680f, -0.03905777f,
    -0.07575461f, -0.00000000f, -0.00000000f, 0.00000000f, -0.00360595f, 0.03797048f, 0.00000000f, -0.00000000f,
    -0.00000000f, 0.06116138f, -0.00000000f, -0.00000000f, 0.03544775f, 0.07645599f, 0.06766524f, -0.00000000f,
    0.00000000f, -0.14172025f, -0.00000000f, -0.00000000f, -0.13098556f, 0.00186202f, 0.00000000f, -0.02961365f,
    0.01071527f, 0.06775501f, 0.14109829f, -0.00000000f, 0.01962841f, -0.18289669f, 0.08074452f, 0.04881671f,
    0.02022169f, -0.00002006f, 0.00000000f, 0.03315785f, 0.00000000f, 0.05212925f, 0.02063940f, -0.10501969f,
    -0.20200428f, -0.00000000f, 0.00000000f, -0.01659449f, 0.11798126f, 0.04167236f, -0.02323717f, -0.00000000f,
    0.15360734f, -0.00000000f, 0.00000015f, -0.00000000f, 0.00674509f, -0.00000000f, 0.00000000f, -0.14617762f,
    0.11826563f, -0.00002481f, 0.00000000f, 0.13164231f, 0.08711504f, 0.05678434f, 0.02949338f, 0.12065600f,
    0.00000000f, -0.04575770f, 0.00548030f, 0.01469972f, -0.06721631f, 0.00000000f, 0.00000000f, -0.04248162f,
    -0.00000000f, 0.00000000f, 0.04166983f, 0.08551589f, 0.04931683f, -0.00000000f, 0.06609875f, 0.00000000f,
    0.12541002f, 0.14476563f, 0.00000000f, -0.00000000f, -0.05030343f, -0.00000000f, 0.03919365f, 0.10241491f,
    0.03789990f, -0.09024616f, 0.03516792f, 0.10450169f, 0.04275233f, -0.11118443f, 0.05489545f, -0.01463182f,
    0.05391432f, 0.00000000f, 0.00747384f, 0.02991436f, 0.09172659f, 0.09344881f, -0.04786009f, 0.01846345f,
    0.04681889f, -0.00000000f, 0.00000000f, 0.05077115f, 0.00000000f, 0.08383445f, 0.02725916f, 0.03583651f,
    0.04444335f, -0.00000000f, 0.04837819f, -0.00027808f, 0.02794373f, 0.14059597f, -0.01016217f, 0.01918680f,
    -0.00002058f, -0.00000000f, 0.00000000f, 0.02141452f, 0.02817861f, -0.01682766f, 0.01520265f, -0.01585834f,
    -0.04775745f, -0.00000000f, -0.00000000f, 0.00000000f, -0.02477711f, 0.01950159f, -0.00000000f, -0.00000000f,
    0.00000000f, 0.07700673f, 0.00000000f, -0.00000000f, 0.01559015f, 0.07032034f, 0.03315769f, -0.00000000f,
    0.00000000f, -0.12487889f, -0.00000000f, -0.00000000f, -0.10168494f, 0.00320907f, -0.00000000f, 0.01409445f,
    -0.00664841f, 0.01914057f, 0.06972118f, -0.00000000f, 0.03958439f, -0.12382209f, 0.01488885f, 0.01988368f,
    0.00568676f, -0.00000911f, -0.00000000f, 0.03745399f, 0.00000000f, -0.00644319f, 0.05746758f, -0.06684128f,
    -0.13975005f, -0.00000000f, 0.00000000f, 0.07271884f, 0.08010838f, 0.01724380f, 0.02956378f, 0.00000000f,
    0.08652243f, 0.00000000f, 0.00000000f, -0.00000000f, -0.00044363f, -0.00000000f, 0.00000000f, -0.10151923f,
    -0.00045998f, 0.00000000f, -0.00000000f, -0.00113847f, -0.00019821f, -0.00125578f, -0.00038500f, -0.00050983f,
    0.00000000f, 0.00000000f, 0.00000000f, -0.00000000f, -0.00000000f, 0.00000000f, -0.00000000f, -0.00005524f,
    0.00000008f, -0.00000000f, -0.00000003f, -0.00103291f, -0.00084342f, -0.00000000f, -0.00016174f, -0.00000000f,
    -0.00134210f, -0.00161904f, -0.00001473f, 0.00000000f, 0.00000000f, 0.00000000f, 0.00000000f, -0.00319929f,
    0.00000000f, -0.00003593f, -0.00012897f, -0.00006369f, 0.00000000f, -0.00004010f, -0.00052022f, -0.00073347f,
    -0.00000050f, 0.00000000f, 0.00000000f, -0.00089993f, -0.00001103f, -0.00034277f, -0.00000533f, -0.00155657f,
    -0.00060508f, -0.00000000f, -0.00000000f, -0.00014510f, 0.00000000f, -0.00048968f, -0.00057788f, -0.00020947f,
    -0.00000000f, 0.00000000f, -0.00044851f, 0.00000000f, 0.00000000f, -0.00265563f, -0.00000116f, -0.00000000f,
    -0.00000000f, -0.00000004f, 0.00000000f, -0.00000000f, -0.00186238f, -0.00027874f, 0.00000000f, -0.00001413f,
    -0.00000000f, -0.00000000f, 0.00000000f, 0.00000000f, 0.00000000f, -0.00116552f, 0.00000000f, -0.00000000f,
    -0.00000000f, -0.00243002f, -0.00000000f, 0.00000000f, -0.00043745f, -0.00000000f, -0.00032276f, -0.00000000f,
    -0.00000000f, -0.00010199f, -0.00000000f, -0.00000000f, -0.00004663f, -0.00000259f, -0.00000000f, -0.00002718f,
    -0.00013278f, -0.00000022f, -0.00000000f, -0.00000000f, -0.00001100f, -0.00019086f, -0.00019324f, 0.00000000f,
    -0.00000000f, 0.00000000f, -0.00000000f, -0.00001707f, -0.00000000f, -0.00146586f, -0.00011437f, -0.00005840f,
    -0.00026594f, 0.00000000f, 0.00000000f, -0.00068569f, -0.00000000f, -0.00000000f, -0.00020727f, 0.00000000f,
    -0.00030402f, 0.00000000f, 0.00000000f, 0.00000000f, -0.00000000f, -0.00000050f, 0.00000000f, -0.00002320f,
    -0.00676389f, -0.00004250f, 0.00000000f, 0.00443677f, 0.01255871f, -0.01276007f, 0.01207381f, 0.09604774f,
    0.00000000f, -0.04100095f, 0.04211207f, 0.01569540f, -0.02626798f, -0.00000000f, 0.00000000f, -0.05071725f,
    -0.00000000f, 0.00000000f, -0.00757272f, 0.03133289f, 0.10775297f, 0.00000000f, 0.10166482f, -0.00000000f,
    0.02309658f, 0.02610440f, 0.00000000f, -0.00000000f, -0.02828694f, -0.00000000f, 0.08335654f, -0.00503532f,
    0.08281223f, -0.17322840f, -0.08086225f, 0.11532396f, 0.07508247f, -0.13654178f, 0.11491008f, -0.04241807f,
    0.09192644f, -0.00000000f, 0.02774382f, 0.10032847f, 0.06765414f, 0.02266366f, -0.05252483f, -0.06132264f,
    -0.03559029f, -0.00000000f, 0.00000000f, -0.01773635f, 0.00000000f, 0.04913389f, 0.01937051f, 0.02719574f,
    0.11869640f, 0.00000000f, 0.13346936f, 0.00065117f, 0.01053848f, 0.06164004f, -0.04512071f, 0.04572466f,
    -0.00015501f, 0.00000000f, -0.00000000f, -0.00139324f, 0.04471908f, -0.07640784f, 0.03172320f, -0.09822091f,
    -0.06481714f, 0.00000000f, 0.00000000f, -0.00000000f, 0.03292600f, -0.08297365f, 0.00000000f, -0.00000000f,
    0.00000000f, 0.02081897f, 0.00000000f, 0.00000000f, 0.03381585f, 0.03495437f, 0.01415238f, 0.00000000f,
    -0.00000000f, -0.17401510f, 0.00000000f, -0.00000000f, -0.17348555f, 0.02435546f, 0.00000000f, -0.04396150f,
    -0.05204664f, 0.03478288f, 0.12150174f, -0.00000000f, -0.01471163f, -0.19957696f, 0.00968292f, 0.04541838f,
    0.01549074f, 0.00000573f, -0.00000000f, -0.09072542f, 0.00000000f, -0.02451330f, 0.00779900f, -0.13585979f,
    -0.20885153f, -0.00000000f, -0.00000000f, -0.07243884f, 0.10318995f, -0.01439402f, -0.01259362f, -0.00000000f,
    0.08259195f, 0.00000000f, 0.00000000f, 0.00000000f, 0.00557123f, -0.00000000f, 0.00000000f, -0.14652359f,
    0.08727209f, -0.00003204f, -0.00000000f, 0.13814045f, 0.04629802f, 0.12463420f, 0.07541007f, 0.05427100f,
    0.00000000f, -0.03865543f, 0.01033839f, 0.01616341f, -0.04105133f, -0.00000000f, 0.00000000f, -0.04282030f,
    0.00000000f, -0.00000000f, 0.01791980f, 0.05761618f, 0.03728355f, 0.00000000f, 0.08925275f, -0.00000000f,
    -0.00014154f, 0.08756220f, -0.00000000f, -0.00000000f, -0.03383944f, -0.00000000f, 0.05370876f, -0.01271028f,
    0.05920676f, -0.12753636f, -0.00036534f, 0.09862167f, 0.06137330f, -0.11142607f, 0.13416688f, -0.01626677f,
    0.07989506f, 0.00000000f, 0.01361686f, 0.13413994f, 0.07805458f, 0.04437489f, -0.03691886f, 0.01879366f,
    0.03381405f, -0.00000000f, 0.00000000f, 0.07669534f, -0.00000000f, -0.00267966f, 0.05957282f, 0.02176622f,
    0.09124688f, 0.00000000f, 0.14703652f, 0.00011867f, 0.02397556f, 0.07869308f, -0.02109740f, 0.03277721f,
    -0.00002935f, -0.00000000f, 0.00000000f, 0.00978057f, 0.11649675f, -0.03489590f, 0.02257226f, -0.05460684f,
    -0.05769013f, 0.00000000f, 0.00000000f, -0.00000000f, 0.00762532f, -0.00697366f, -0.00000000f, 0.00000000f,
    -0.00000000f, 0.04396811f, -0.00000000f, 0.00000000f, 0.07600576f, 0.05839011f, 0.01712127f, 0.00000000f,
    -0.00000000f, -0.14259063f, -0.00000000f, 0.00000000f, -0.13512561f, 0.00522148f, -0.00000000f, -0.01638317f,
    -0.00111387f, 0.01935910f, 0.09105798f, -0.00000000f, -0.01341742f, -0.14391205f, 0.01542711f, 0.02987446f,
    0.00961573f, 0.00000041f, -0.00000000f, -0.02460496f, -0.00000000f, 0.07245602f, 0.01769740f, -0.09170838f,
    -0.16064076f, 0.00000000f, -0.00000000f, 0.00618346f, 0.09618620f, 0.00591415f, -0.00232088f, -0.00000000f,
    0.13528408f, 0.00000000f, 0.00000000f, 0.00000000f, 0.00216007f, 0.00000000f, 0.00000000f, -0.11996984f,
    -0.00000000f, 0.00000000f, -0.00000000f, -0.00000000f, -0.00000000f, -0.00000000f, -0.00000000f, -0.00000000f,
    0.00000000f, 0.00000000f, 0.00000000f, 0.00000000f, -0.00000000f, 0.00000000f, -0.00001176f, 0.00000000f,
    0.00000000f, -0.00000000f, -0.00000000f, -0.00000000f, -0.00000000f, 0.00000000f, 0.00000000f, -0.00000000f,
    -0.00000000f, 0.00000000f, -0.00000110f, 0.00000000f, -0.00000000f, 0.00000000f, 0.00000000f, -0.00000000f,
    0.00000000f, -0.00000000f, -0.00000000f, 0.00000000f, -0.00000000f, -0.00000000f, 0.00000000f, -0.00000000f,
    0.00000000f, -0.00000000f, 0.00000000f, 0.00000000f, -0.00000000f, -0.00000000f, -0.00000000f, -0.00000000f,
    0.00000000f, 0.00000000f, -0.00000004f, -0.00000000f, 0.00000000f, 0.00000000f, -0.00000000f, -0.00000000f,
    -0.00000000f, 0.00000000f, 0.00000000f, 0.00000000f, -0.00000000f, -0.00000000f, 0.00000000f, -0.00000000f,
    -0.00000000f, 0.00000000f, 0.00000000f, -0.00000000f, -0.00000000f, 0.00000000f, -0.00000000f, -0.00000000f,
    0.00000000f, -0.00000000f, 0.00000000f, -0.00000000f, 0.00000000f, 0.00000000f, 0.00000000f, -0.00000000f,
    0.00000000f, -0.00000000f, 0.00000000f, -0.00000000f, -0.00000000f, -0.00000000f, 0.00000000f, 0.00000000f,
    -0.00000000f, 0.00000000f, 0.00000000f, 0.00000000f, 0.00000000f, 0.00000000f, 0.00000000f, -0.00000000f,
    0.00000000f, 0.00000000f, 0.00000000f, -0.00000000f, 0.00000000f, -0.00000000f, 0.00000000f, -0.00000000f,
    -0.00000000f, 0.00000000f, -0.00000000f, 0.00000000f, -0.00000000f, 0.00000000f, 0.00000000f, -0.00000000f,
    0.00000000f, 0.00000000f, -0.00000023f, 0.00000000f, -0.00000000f, -0.00000000f, 0.00000000f, -0.00000000f,
    0.00000000f, 0.00000000f, 0.00000000f, 0.00000000f, 0.00000000f, -0.00000000f, 0.00000000f, 0.00000000f,
    -0.00000000f, -0.00000000f, 0.00000000f, -0.00000000f, -0.00000000f, 0.00000000f, -0.00000000f, -0.00000000f,
    -0.00000000f, 0.00000000f, 0.00000000f, 0.00000000f, 0.00000000f, -0.00000000f, 0.00000000f, 0.00000000f,
    0.00000536f, -0.00000000f, 0.00000000f, -0.00000000f, -0.00000000f, -0.00000000f, -0.00000000f, 0.00000000f,
    -0.00000000f, 0.00000000f, 0.00000000f, -0.00000000f, 0.00000000f, -0.00000000f, -0.00000000f, -0.00000000f,
    0.00000000f, -0.00000000f, -0.00000000f, 0.00000000f, -0.00000000f, 0.00000000f, -0.00000000f, -0.00000000f,
    -0.00000000f, -0.00000000f, -0.00000000f, -0.00000000f, -0.00000000f, 0.00000000f, 0.00000000f, -0.00000000f,
    -0.00000000f, 0.00000000f, -0.00000000f, -0.00000000f, -0.00000000f, 0.00000000f, 0.00000000f, -0.00000000f,
    -0.00000000f, -0.00000000f, -0.00000000f, -0.00000000f, -0.00000000f, 0.00000000f, 0.00000000f, 0.00000000f,
    0.00000000f, -0.00000000f, -0.00000000f, 0.00000000f, 0.00000000f, -0.00000000f, 0.00000000f, -0.00000000f,
    -0.00000000f, 0.00000000f, 0.00000000f, -0.00000000f, -0.00000000f, 0.00000000f, 0.00000000f, 0.00000000f,
    0.00000000f, 0.00000000f, 0.00000000f, 0.00000000f, -0.00000000f, -0.00000000f, -0.00000000f, -0.00000000f,
    -0.00000000f, 0.00000000f, 0.00000000f, 0.00000000f, 0.00000000f, -0.00000000f, -0.00000000f, 0.00000000f,
    0.00000000f, -0.00000000f, -0.00000000f, 0.00000000f, 0.00000000f, 0.00000000f, -0.00000000f, 0.00000000f,
    0.00000000f, -0.00000000f, -0.00000000f, -0.00000000f, -0.00000000f, 0.00000000f, -0.00000000f, 0.00000000f,
    -0.00000000f, -0.00000000f, 0.00000000f, 0.00000000f, 0.00000000f, 0.00000000f, 0.00000000f, -0.00000000f,
    -0.00000000f, -0.00000000f, 0.00000000f, 0.00000000f, 0.00000000f, 0.00000000f, 0.00000000f, 0.00000000f,
    -0.00052786f, -0.00000000f, 0.00000000f, -0.00085126f, -0.00006989f, -0.00007939f, -0.00008366f, -0.00008309f,
    -0.00000000f, 0.00000000f, -0.00000000f, 0.00000000f, 0.00000004f, -0.00000000f, 0.00000000f, 0.00017494f,
    0.00000000f, 0.00000000f, -0.00006110f, -0.00090919f, -0.00025909f, -0.00000000f, -0.00055002f, -0.00000000f,
    -0.00014386f, -0.00042107f, 0.00000000f, 0.00000000f, -0.00000000f, 0.00000000f, 0.00000000f, 0.00006640f,
    0.00000000f, 0.00009930f, -0.00007846f, -0.00032399f, -0.00000000f, 0.00009655f, -0.00032129f, 0.00000385f,
    -0.00003991f, 0.00000000f, 0.00000000f, -0.00005997f, -0.00030095f, -0.00018735f, 0.00003907f, 0.00081529f,
    -0.00033056f, 0.00000000f, 0.00001000f, -0.00025986f, 0.00000000f, -0.00018098f, 0.00007204f, 0.00006085f,
    -0.00000000f, 0.00000000f, -0.00037034f, -0.00000000f, -0.00000000f, 0.00006706f, 0.00000961f, -0.00000000f,
    -0.00000000f, -0.00000000f, -0.00000000f, 0.00000000f, -0.00036829f, 0.00042347f, 0.00000000f, 0.00003000f,
    0.00000052f, 0.00000000f, 0.00000002f, 0.00000000f, 0.00000001f, 0.00019040f, 0.00000000f, 0.00000000f,
    0.00000000f, -0.00032379f, 0.00000062f, -0.00000000f, 0.00008265f, -0.00000007f, -0.00042286f, -0.00000000f,
    -0.00000000f, 0.00024858f, 0.00000000f, -0.00000000f, 0.00012574f, -0.00008175f, -0.00000000f, 0.00007469f,
    0.00022360f, -0.00002430f, -0.00000000f, -0.00000246f, 0.00001471f, 0.00032070f, -0.00008048f, -0.00000000f,
    -0.00000000f, -0.00000000f, -0.00000001f, -0.00020321f, -0.00000000f, 0.00021777f, 0.00000748f, 0.00009807f,
    0.00039400f, -0.00000000f, -0.00000000f, 0.00026150f, -0.00016305f, -0.00000947f, 0.00004631f, -0.00000061f,
    -0.00015294f, -0.00000000f, 0.00000000f, -0.00000000f, 0.00000000f, -0.00000000f, 0.00000000f, 0.00009698f,
    0.06412889f, -0.00004646f, -0.00000000f, 0.01952476f, -0.00130802f, -0.01063618f, 0.05484464f, 0.02266010f,
    -0.00000000f, -0.04647841f, 0.02314753f, 0.01624756f, -0.04392887f, -0.00000000f, -0.00000000f, -0.05963131f,
    0.00000000f, -0.00000000f, 0.00309983f, 0.09014652f, 0.03480513f, -0.00000000f, 0.04204074f, 0.00000000f,
    0.05679819f, -0.02161333f, 0.00000000f, -0.00000000f, -0.03740060f, -0.00000000f, 0.07449216f, 0.00172461f,
    0.07617140f, -0.17706975f, -0.02835810f, 0.09246499f, 0.08059378f, -0.13523170f, 0.07376052f, 0.00343993f,
    0.05031194f, 0.00000000f, 0.02422144f, 0.08953442f, 0.08812512f, 0.01227994f, -0.06302114f, -0.05309106f,
    -0.02757591f, -0.00000000f, -0.00000000f, 0.00537784f, -0.00000000f, -0.00842611f, -0.01888968f, -0.00042241f,
    0.11529651f, -0.00000000f, 0.11637311f, 0.00037024f, -0.00215494f, 0.08191569f, -0.05056071f, 0.03962198f,
    -0.00020664f, -0.00000000f, -0.00000000f, -0.00102452f, 0.04466951f, -0.04189889f, 0.03196193f, -0.09553429f,
    -0.07235350f, -0.00000000f, 0.00000000f, 0.00000000f, 0.01402803f, -0.06688767f, 0.00000000f, 0.00000000f,
    0.00000000f, 0.03231550f, -0.00000000f, -0.00000000f, 0.02181600f, 0.03945825f, 0.04973496f, 0.00000000f,
    -0.00000000f, -0.17702568f, 0.00000000f, 0.00000000f, -0.18292008f, -0.00442248f, 0.00000000f, -0.02756016f,
    -0.04324346f, 0.03097053f, 0.11838273f, -0.00000000f, -0.01953163f, -0.19112736f, -0.02790583f, 0.03852663f,
    0.01429310f, -0.00000174f, -0.00000000f, -0.05699179f, -0.00000000f, -0.04917559f, 0.02009325f, -0.13085049f,
    -0.20485929f, -0.00000000f, -0.00000000f, -0.01837192f, 0.08563101f, -0.00209358f, -0.00195038f, -0.00000000f,
    0.07726327f, -0.00000000f, 0.00000000f, 0.00000000f, 0.00472684f, -0.00000000f, 0.00000000f, -0.15762624f,
    0.10314158f, -0.00001980f, 0.00000000f, 0.13869870f, 0.02945458f, 0.14908206f, 0.10080399f, 0.06835557f,
    -0.00000000f, -0.05052153f, 0.01365262f, 0.01751350f, -0.05875349f, 0.00000000f, 0.00000000f, -0.05522461f,
    0.00000000f, -0.00000000f, 0.03041346f, 0.13035174f, 0.02510891f, 0.00000000f, 0.10403008f, -0.00000000f,
    0.04206995f, 0.12192395f, 0.00000000f, -0.00000000f, -0.05073226f, -0.00000000f, 0.05775131f, 0.10102727f,
    0.05271079f, -0.09033835f, 0.04405631f, 0.05137808f, 0.05538323f, -0.14838794f, 0.16010304f, 0.05117617f,
    0.09312584f, 0.00000000f, 0.01735143f, 0.11279562f, 0.11259120f, 0.09028178f, -0.04650619f, -0.04616475f,
    0.06263284f, 0.00000000f, -0.00000000f, 0.08406605f, 0.00000000f, 0.06843390f, 0.01985076f, 0.01876116f,
    0.06797989f, 0.00000000f, 0.03874197f, -0.00029006f, 0.03445810f, 0.04640762f, -0.01150789f, 0.03071337f,
    0.00001695f, 0.00000000f, 0.00000000f, 0.02799857f, 0.11775844f, -0.04636152f, 0.02126828f, -0.03069592f,
    -0.04846859f, 0.00000000f, -0.00000000f, 0.00000000f, -0.01087899f, -0.05669708f, 0.00000000f, -0.00000000f,
    -0.00000000f, 0.06970736f, -0.00000000f, -0.00000000f, 0.06808463f, 0.06843252f, 0.04485868f, -0.00000000f,
    -0.00000000f, -0.14283504f, -0.00000000f, -0.00000000f, -0.10143485f, 0.00670939f, 0.00000000f, 0.01262007f,
    0.00919540f, 0.02781877f, 0.08331300f, -0.00000000f, 0.03593305f, -0.15394443f, 0.08220384f, 0.02929410f,
    0.01011407f, -0.00001547f, -0.00000000f, 0.03412586f, -0.00000000f, 0.09099582f, 0.03257357f, -0.08406935f,
    -0.17249802f, -0.00000000f, 0.00000000f, 0.02581601f, 0.06571031f, 0.01295202f, -0.00454756f, -0.00000000f,
    0.05326970f, -0.00000000f, 0.00000002f, 0.00000000f, 0.00101548f, 0.00000000f, 0.00000000f, -0.10888185f,
    0.02210881f, 0.00000321f, -0.00000000f, -0.05821759f, 0.08627307f, 0.06014233f, -0.07075011f, -0.15945077f,
    0.00000000f, 0.11053916f, -0.02139944f, -0.04744613f, 0.08222976f, -0.00000000f, -0.00000000f, 0.15463960f,
    0.00000000f, 0.00000000f, 0.13456793f, -0.07676167f, -0.00910332f, -0.00000000f, -0.12993158f, 0.00000000f,
    0.07311378f, 0.11974049f, -0.00000000f, -0.00000000f, 0.05278780f, -0.00000000f, -0.20680483f, 0.10740985f,
    -0.22545098f, 0.25867233f, 0.22382239f, -0.12976086f, -0.19590320f, 0.29998893f, -0.09067777f, 0.24613982f,
    -0.19391447f, 0.00000000f, -0.08381205f, -0.09190793f, -0.17336524f, 0.13863181f, 0.10465664f, 0.23567422f,
    0.08978584f, 0.00000000f, -0.00000000f, 0.11261418f, -0.00000000f, 0.05645647f, 0.10387711f, 0.16011250f,
    -0.20511048f, 0.00000000f, -0.17916469f, -0.00121448f, 0.06823235f, 0.08823340f, 0.05967983f, -0.14408858f,
    0.00067450f, 0.00000000f, 0.00000000f, -0.02305409f, 0.07845951f, 0.17487331f, -0.11523720f, 0.20052189f,
    0.17364603f, 0.00000000f, 0.00000000f, 0.00000000f, -0.07901753f, 0.22710373f, 0.00000000f, 0.00000000f,
    -0.00000000f, 0.16143140f, -0.00000000f, 0.00000000f, -0.01396580f, -0.00153425f, 0.15725012f, 0.00000000f,
    -0.00000000f, 0.36877027f, 0.00000000f, -0.00000000f, 0.28418240f, 0.11180911f, -0.00000000f, 0.13811518f,
    0.18245748f, -0.07339641f, -0.21583007f, -0.00000000f, 0.08269926f, 0.35871702f, 0.15568361f, -0.14375520f,
    -0.06299777f, -0.00001405f, -0.00000000f, 0.22494778f, 0.00000000f, 0.11124165f, 0.05642214f, 0.24678963f,
    0.38059646f, -0.00000000f, -0.00000000f, 0.17490830f, -0.17672300f, 0.06155956f, 0.23502851f, 0.00000000f,
    -0.16578725f, 0.00000000f, -0.00001253f, -0.00000000f, -0.04353240f, 0.00000000f, 0.00000000f, 0.27992687f,
    0.03997692f, -0.00001893f, -0.00000000f, 0.14149198f, 0.10990038f, 0.08926881f, 0.11801179f, 0.12067517f,
    -0.00000000f, -0.05194925f, 0.01490462f, 0.01782196f, -0.08258322f, -0.00000000f, 0.00000000f, -0.05121825f,
    0.00000000f, -0.00000000f, 0.05702618f, 0.11273576f, 0.06883733f, 0.00000000f, 0.04939453f, -0.00000000f,
    0.08498017f, 0.11226255f, 0.00000000f, -0.00000000f, -0.05805049f, 0.00000000f, 0.03922616f, 0.02678995f,
    0.03775291f, -0.10303644f, 0.03698783f, 0.08031972f, 0.04506031f, -0.12743287f, 0.05868413f, 0.00001948f,
    0.03630660f, 0.00000000f, 0.01054624f, 0.10499870f, 0.09779327f, 0.08382151f, -0.05507283f, -0.00010848f,
    0.10383705f, 0.00000000f, -0.00000000f, 0.04833009f, -0.00000000f, 0.06892034f, 0.03837632f, -0.00377176f,
    0.06471545f, 0.00000000f, 0.03275501f, -0.00043820f, 0.00822136f, 0.14663145f, -0.01195093f, 0.02471335f,
    -0.00004279f, 0.00000000f, -0.00000000f, 0.02458194f, 0.13143519f, 0.00996323f, 0.01666681f, 0.00496806f,
    -0.06123466f, 0.00000000f, 0.00000000f, 0.00000000f, -0.03743495f, 0.05024479f, -0.00000000f, 0.00000000f,
    -0.00000000f, 0.09048229f, -0.00000000f, -0.00000000f, 0.08912096f, 0.06000528f, 0.11136170f, -0.00000000f,
    -0.00000000f, -0.11096005f, 0.00000000f, -0.00000000f, -0.10272007f, 0.02008511f, 0.00000000f, 0.00071875f,
    0.00968142f, 0.02367139f, 0.07898279f, 0.00000000f, 0.02927508f, -0.12568270f, 0.02816793f, 0.02103337f,
    0.00636878f, -0.00001451f, -0.00000000f, 0.08136025f, -0.00000000f, 0.05760091f, 0.01363294f, -0.06158691f,
    -0.16292757f, 0.00000000f, 0.00000000f, 0.02006178f, 0.07445709f, 0.01659956f, -0.00439956f, 0.00000000f,
    0.13102226f, 0.00000000f, 0.00000004f, 0.00000000f, -0.00006141f, -0.00000000f, 0.00000000f, -0.12344149f,
    -0.00000000f, 0.00000000f, 0.00000000f, -0.00000000f, -0.00000000f, -0.00000000f, -0.00000000f, -0.00000000f,
    -0.00000000f, 0.00000000f, 0.00000000f, 0.00000000f, 0.00000000f, 0.00000000f, -0.00000000f, 0.00000000f,
    -0.00000000f, -0.00000000f, -0.00000000f, -0.00000000f, -0.00000000f, 0.00000000f, 0.00000000f, 0.00000000f,
    -0.00000000f, -0.00000000f, -0.00000000f, -0.00000146f, 0.00000000f, -0.00000000f, -0.00000000f, -0.00000001f,
    -0.00000000f, -0.00000000f, 0.00000000f, -0.00000000f, -0.00000000f, -0.00000000f, -0.00000000f, -0.00000000f,
    0.00000000f, -0.00000000f, -0.00000000f, -0.00000000f, -0.00000000f, -0.00000000f, 0.00000000f, -0.00000000f,
    -0.00000000f, 0.00000000f, 0.00000000f, 0.00000000f, -0.00000000f, -0.00000000f, -0.00000000f, -0.00000000f,
    -0.00000000f, -0.00000000f, -0.00000000f, -0.00000000f, -0.00000000f, -0.00000000f, 0.00000000f, -0.00000000f,
    0.00000000f, 0.00000000f, -0.00000000f, 0.00000000f, -0.00000000f, -0.00000000f, -0.00000000f, 0.00000000f,
    -0.00000000f, -0.00000000f, -0.00000000f, -0.00000000f, 0.00000000f, -0.00000000f, 0.00000000f, -0.00000000f,
    0.00000001f, -0.00000000f, 0.00000000f, 0.00001040f, -0.00000000f, 0.00000000f, -0.00000000f, 0.00000000f,
    -0.00000000f, -0.00000000f, 0.00000000f, 0.00000000f, 0.00000000f, 0.00000000f, 0.00000000f, -0.00000000f,
    0.00000000f, -0.00000000f, 0.00000000f, -0.00000356f, 0.00000000f, -0.00000000f, -0.00000000f, -0.00000000f,
    0.00000000f, 0.00000000f, -0.00000711f, -0.00000000f, -0.00001173f, -0.00000000f, 0.00000000f, 0.00000000f,
    -0.00000000f, 0.00000000f, 0.00000000f, -0.00000000f, 0.00000000f, 0.00000000f, -0.00000000f, -0.00000000f,
    -0.00000000f, 0.00000013f, -0.00001739f, 0.00000000f, -0.00000000f, 0.00000000f, 0.00000000f, -0.00000000f,
    -0.00000007f, 0.00000131f, 0.00000000f, -0.00000013f, -0.00000003f, -0.00000010f, -0.00000005f, -0.00000007f,
    -0.00000000f, 0.00000000f, -0.00000004f, 0.00000000f, -0.00000001f, 0.00000000f, -0.00000000f, 0.00000004f,
    -0.00000000f, 0.00000000f, 0.00000005f, -0.00000013f, -0.00000009f, -0.00000000f, -0.00000004f, -0.00000000f,
    -0.00000010f, -0.00000013f, 0.00000622f, 0.00000000f, -0.00000000f, -0.00000000f, 0.00000003f, -0.00000019f,
    -0.00000002f, 0.00000003f, 0.00000000f, 0.00000001f, -0.00000005f, 0.00000004f, -0.00000008f, -0.00000007f,
    0.00000005f, 0.00000000f, 0.00000003f, -0.00000009f, 0.00000004f, -0.00000005f, 0.00000003f, -0.00000006f,
    -0.00000008f, 0.00000000f, 0.00000015f, -0.00000002f, 0.00000000f, -0.00000006f, -0.00000006f, -0.00000003f,
    -0.00000002f, 0.00000000f, -0.00000008f, -0.00000396f, 0.00000000f, -0.00000016f, 0.00000002f, 0.00000003f,
    0.00000000f, -0.00000000f, 0.00000000f, -0.00000000f, -0.00000014f, -0.00000001f, 0.00000003f, 0.00000003f,
    -0.00000002f, -0.00000000f, -0.00000000f, 0.00000000f, 0.00000000f, -0.00000008f, -0.00000053f, 0.00000000f,
    -0.00000000f, -0.00000016f, -0.00000000f, -0.00000000f, -0.00000006f, -0.00000001f, -0.00000005f, -0.00000000f,
    -0.00000000f, 0.00000005f, 0.00000000f, -0.00000001f, 0.00000003f, 0.00000006f, -0.00000657f, 0.00000004f,
    0.00000001f, 0.00000004f, -0.00000004f, 0.00000000f, 0.00000004f, 0.00000004f, -0.00000003f, 0.00000002f,
    -0.00000002f, -0.00000002f, 0.00000000f, 0.00000005f, -0.00000000f, -0.00000009f, -0.00000001f, 0.00000004f,
    0.00000003f, -0.00000000f, 0.00000036f, -0.00000006f, 0.00000006f, 0.00000003f, -0.00000002f, 0.00000000f,
    -0.00000005f, -0.00000000f, 0.00000000f, -0.00000000f, -0.00000001f, 0.00000000f, 0.00000000f, 0.00000002f,
    -0.00000000f, 0.00000000f, -0.00000000f, -0.00000000f, 0.00000000f, -0.00000000f, -0.00000000f, -0.00000000f,
    -0.00000000f, -0.00000000f, -0.00000000f, 0.00000000f, 0.00000000f, -0.00000123f, -0.00000000f, 0.00000000f,
    -0.00001482f, -0.00000000f, -0.00000000f, -0.00000000f, -0.00000000f, 0.00000000f, 0.00000000f, 0.00000004f,
    -0.00000000f, -0.00000000f, 0.00000091f, -0.00000000f, 0.00000000f, 0.00000000f, -0.00000000f, -0.00000000f,
    0.00000000f, 0.00000000f, -0.00000000f, -0.00000000f, -0.00000000f, -0.00000000f, -0.00000000f, 0.00000000f,
    0.00000000f, 0.00000000f, 0.00000000f, -0.00000000f, -0.00000000f, 0.00000000f, 0.00000000f, 0.00000000f,
    -0.00000000f, 0.00000000f, -0.00000000f, 0.00000000f, 0.00000000f, -0.00000000f, -0.00000000f, 0.00000000f,
    0.00000000f, -0.00000000f, 0.00000000f, -0.00000000f, 0.00000000f, -0.00000000f, 0.00000000f, -0.00000000f,
    -0.00000000f, 0.00000000f, -0.00000000f, 0.00000000f, -0.00000000f, 0.00000000f, 0.00000000f, -0.00000000f,
    0.00000000f, 0.00000000f, -0.00000003f, -0.00000000f, -0.00000000f, -0.00000000f, 0.00000000f, 0.00000000f,
    -0.00000000f, -0.00000000f, 0.00000000f, 0.00000000f, -0.00000000f, 0.00000000f, -0.00000000f, -0.00000000f,
    -0.00000000f, -0.00000000f, -0.00000000f, 0.00000000f, 0.00000000f, -0.00000000f, -0.00000000f, 0.00000000f,
    -0.00000000f, -0.00000000f, 0.00000000f, -0.00000000f, 0.00000000f, 0.00000000f, 0.00000000f, 0.00000000f,
    0.00000000f, -0.00000000f, -0.00000000f, -0.00000000f, 0.00000000f, -0.00000000f, 0.00000000f, -0.00000000f,
    -0.00000000f, 0.00000016f, -0.00000000f, -0.00000000f, -0.00000000f, -0.00000000f, 0.00000000f, -0.00000000f,
    -0.00000000f, -0.00000000f, 0.00000000f, 0.00000169f, -0.00000000f, -0.00000000f, 0.00000000f, -0.00000000f,
    -0.00000014f, -0.00000000f, 0.00000000f, -0.00000014f, -0.00000014f, -0.00000016f, -0.00000015f, -0.00000015f,
    0.00000000f, -0.00000000f, 0.00000000f, -0.00000004f, 0.00000003f, -0.00000000f, 0.00000000f, -0.00000014f,
    -0.00000000f, 0.00000000f, -0.00000007f, -0.00000014f, -0.00000015f, 0.00000000f, -0.00000012f, 0.00000000f,
    -0.00000015f, -0.00000016f, 0.00000000f, 0.00000000f, -0.00000000f, 0.00000000f, 0.00000001f, -0.00000017f,
    -0.00000002f, -0.00000012f, -0.00000014f, -0.00000012f, 0.00000001f, -0.00000011f, -0.00000015f, -0.00000016f,
    -0.00000010f, 0.00000000f, 0.00000001f, -0.00000015f, -0.00000011f, -0.00000015f, -0.00000009f, -0.00000018f,
    -0.00000014f, -0.00000000f, 0.00000000f, -0.00000012f, -0.00000000f, -0.00000014f, -0.00000016f, -0.00000014f,
    -0.00000002f, -0.00000000f, -0.00000013f, -0.00000000f, -0.00000001f, -0.00000017f, -0.00000008f, 0.00000001f,
    0.00000000f, 0.00000000f, 0.00000001f, 0.00000004f, -0.00000016f, -0.00000017f, 0.00000000f, -0.00000010f,
    0.00000004f, -0.00000000f, -0.00000000f, -0.00000000f, 0.00000005f, -0.00000017f, 0.00000000f, -0.00000000f,
    0.00000000f, -0.00000016f, 0.00000000f, 0.00000000f, -0.00000015f, -0.00000002f, -0.00000014f, 0.00000000f,
    0.00000000f, -0.00000014f, -0.00000000f, 0.00000000f, -0.00000012f, -0.00000009f, 0.00000000f, -0.00000012f,
    -0.00000014f, -0.00000009f, -0.00000001f, 0.00000000f, -0.00000011f, -0.00000016f, -0.00000013f, 0.00000000f,
    0.00000000f, 0.00000000f, -0.00000000f, -0.00000011f, -0.00000000f, -0.00000017f, -0.00000013f, -0.00000013f,
    -0.00000017f, -0.00000000f, 0.00000000f, -0.00000016f, -0.00000006f, -0.00000005f, -0.00000014f, 0.00000000f,
    -0.00000014f, 0.00000212f, -0.00000000f, 0.00000000f, -0.00000000f, -0.00000000f, -0.00000000f, -0.00000010f,
    0.02325664f, 0.00001316f, -0.00000000f, 0.02276992f, 0.09556548f, -0.01451560f, -0.02596136f, -0.08296854f,
    0.00000000f, 0.10387994f, -0.01815179f, -0.04354170f, 0.06459774f, -0.00000000f, -0.00000000f, 0.15534608f,
    -0.00000000f, 0.00000000f, 0.14678136f, -0.03750497f, 0.03810867f, 0.00000000f, -0.10644616f, 0.00000000f,
    0.13515735f, 0.06456997f, -0.00000000f, -0.00000000f, 0.05042354f, 0.00000000f, -0.19945942f, 0.10898765f,
    -0.21318573f, 0.25079966f, 0.20367998f, -0.13937807f, -0.18041271f, 0.29055315f, -0.11176026f, 0.21536754f,
    -0.21364658f, 0.00000000f, -0.07728513f, -0.10910523f, -0.16817898f, 0.16606447f, 0.10092121f, 0.24700665f,
    0.13671568f, 0.00000000f, -0.00000000f, 0.12946846f, -0.00000000f, 0.12611227f, 0.19222115f, 0.05665413f,
    -0.19838111f, 0.00000000f, -0.14022490f, -0.00135904f, 0.06624081f, 0.01120948f, 0.05018719f, -0.13009192f,
    0.00068041f, -0.00000000f, 0.00000000f, -0.01695936f, 0.07243666f, 0.15416853f, -0.10657087f, 0.20062242f,
    0.15809540f, 0.00000000f, 0.00000000f, 0.00000000f, -0.08355413f, 0.19978839f, -0.00000000f, -0.00000000f,
    -0.00000000f, 0.18924627f, 0.00000000f, 0.00000000f, 0.02671094f, 0.01843336f, 0.11333805f, -0.00000000f,
    0.00000000f, 0.35393965f, 0.00000000f, -0.00000000f, 0.27608693f, 0.15634763f, -0.00000000f, 0.13836357f,
    0.18707235f, -0.08641628f, -0.21265198f, -0.00000000f, 0.09702480f, 0.35597384f, 0.05715413f, -0.12615380f,
    -0.06231149f, -0.00000560f, -0.00000000f, 0.21141319f, 0.00000000f, 0.19811925f, 0.05476600f, 0.24900003f,
    0.38083950f, -0.00000000f, 0.00000000f, 0.07767992f, -0.10684876f, 0.05490325f, 0.13554882f, 0.00000000f,
    -0.09924427f, -0.00000000f, -0.00000540f, 0.00000000f, -0.03867610f, 0.00000000f, 0.00000000f, 0.26601863f,
    0.03680339f, -0.00002057f, 0.00000000f, 0.09609582f, 0.04548924f, 0.12805109f, 0.05368862f, 0.10296340f,
    0.00000000f, -0.05963102f, 0.03391841f, 0.02219955f, -0.08068281f, -0.00000000f, 0.00000000f, -0.05766446f,
    0.00000000f, -0.00000000f, 0.04112694f, 0.07980675f, 0.02259717f, -0.00000000f, 0.13657239f, -0.00000000f,
    0.12353710f, 0.07996496f, 0.00000000f, 0.00000000f, -0.05744221f, -0.00000000f, 0.07579039f, 0.01852591f,
    0.06493437f, -0.13936338f, 0.03660034f, 0.12522689f, 0.07513025f, -0.14888014f, 0.07552450f, 0.07326274f,
    0.07910634f, 0.00000000f, 0.01971642f, 0.07486138f, 0.12726723f, 0.01423185f, -0.06498498f, -0.03023473f,
    0.03320099f, -0.00000000f, 0.00000000f, 0.05328526f, -0.00000000f, 0.08868016f, 0.04380214f, 0.04028202f,
    0.11496504f, -0.00000000f, 0.07790469f, -0.00026331f, 0.02300598f, 0.12368603f, -0.03663705f, 0.04134303f,
    -0.00013102f, -0.00000000f, 0.00000000f, 0.02035590f, 0.12694751f, -0.06722197f, 0.03005353f, -0.02536986f,
    -0.08418922f, 0.00000000f, -0.00000000f, 0.00000000f, -0.02254411f, 0.01162247f, 0.00000000f, -0.00000000f,
    -0.00000000f, -0.00399240f, 0.00000000f, 0.00000000f, 0.09600902f, 0.07128967f, 0.07798122f, 0.00000000f,
    -0.00000000f, -0.17599040f, -0.00000000f, -0.00000000f, -0.15642768f, -0.02095093f, 0.00000000f, -0.00855466f,
    0.00802659f, 0.04769348f, 0.10567965f, -0.00000000f, 0.01915736f, -0.18578954f, -0.01920570f, 0.04174097f,
    0.01553806f, -0.00001972f, 0.00000000f, 0.02058919f, 0.00000000f, 0.00076636f, 0.01999708f, -0.09956069f,
    -0.18597956f, 0.00000000f, 0.00000000f, 0.05539350f, 0.14099652f, 0.04125832f, 0.00075199f, 0.00000000f,
    0.13182423f, 0.00000000f, 0.00000009f, -0.00000000f, 0.00421085f, 0.00000000f, 0.00000000f, -0.15708698f,
    -0.00941749f, -0.00014997f, 0.00000000f, -0.00427708f, -0.04912988f, 0.04955455f, 0.07237634f, 0.15570681f,
    0.00000000f, -0.17294925f, 0.04189678f, 0.00196993f, 0.26010600f, -0.00000000f, -0.00000000f, 0.08380053f,
    -0.00000000f, 0.00000000f, -0.23440109f, 0.02146047f, 0.03513151f, 0.00000000f, 0.11574243f, -0.00000000f,
    0.00887620f, 0.00211109f, 0.00000000f, 0.00000000f, 0.00441181f, 0.00000000f, 0.23521452f, -0.06882006f,
    0.29084113f, -0.08292648f, -0.26274064f, 0.22268608f, 0.16513811f, -0.47482237f, 0.14709845f, -0.17673902f,
    0.29646501f, -0.00000000f, 0.04639493f, 0.15595764f, 0.15233015f, -0.09793243f, 0.13607112f, -0.11659133f,
    -0.12741974f, 0.00000000f, -0.00000000f, -0.05915706f, -0.00000000f, -0.04941278f, -0.08673121f, -0.04622641f,
    0.24046785f, 0.00000000f, 0.16427584f, 0.00583046f, 0.01634695f, -0.01249005f, 0.07180613f, 0.12491098f,
    0.00043908f, -0.00000000f, -0.00000000f, -0.00384647f, -0.00969847f, 0.00018460f, 0.10804870f, -0.24236999f,
    -0.02161994f, -0.00000000f, 0.00000000f, 0.00000000f, 0.38461792f, -0.26194888f, 0.00000000f, 0.00000000f,
    -0.00000000f, -0.08010896f, 0.00000000f, 0.00000000f, 0.10382105f, -0.09613682f, -0.11154632f, -0.00000000f,
    0.00000000f, -0.19919296f, 0.00000000f, -0.00000000f, -0.06366298f, -0.06672823f, -0.00000000f, -0.03916850f,
    -0.03778040f, 0.17482883f, 0.23832273f, -0.00000000f, -0.00165547f, -0.28814927f, 0.01517101f, 0.14344859f,
    0.03792731f, -0.00003112f, -0.00000000f, -0.46936506f, 0.00000000f, -0.06592792f, -0.00901032f, -0.25960428f,
    -0.29506710f, -0.00000000f, 0.00000000f, -0.08843296f, 0.12643433f, -0.05607301f, -0.12780695f, 0.00000000f,
    0.22589602f, -0.00000000f, -0.00000001f, -0.00000000f, 0.01890506f, -0.00000000f, -0.00000000f, -0.00786094f,
    0.00000000f, 0.00000000f, 0.00000000f, 0.00000000f, -0.00000000f, 0.00000000f, 0.00000000f, 0.00000000f,
    -0.00000000f, 0.00000000f, 0.00000000f, 0.00000000f, 0.00000000f, 0.00000000f, -0.00000000f, -0.00000000f,
    0.00000000f, 0.00000000f, 0.00000000f, 0.00000000f, 0.00000000f, -0.00000000f, -0.00000000f, 0.00000000f,
    0.00000000f, 0.00000000f, -0.00000000f, -0.00000438f, 0.00000000f, 0.00000000f, -0.00000000f, -0.00000000f,
    0.00000000f, -0.00000000f, -0.00000000f, -0.00000000f, -0.00000000f, -0.00000000f, 0.00000000f, 0.00000000f,
    -0.00000000f, 0.00000000f, 0.00000000f, 0.00000000f, 0.00000000f, 0.00000000f, -0.00000000f, 0.00000000f,
    0.00000000f, -0.00000003f, 0.00000000f, -0.00000000f, 0.00000000f, 0.00000000f, 0.00000000f, -0.00000000f,
    -0.00000000f, -0.00000000f, 0.00000000f, 0.00000012f, 0.00000000f, -0.00000000f, 0.00000000f, -0.00000000f,
    -0.00000000f, 0.00000000f, 0.00000000f, -0.00000000f, -0.00000000f, -0.00000000f, 0.00000000f, 0.00000000f,
    -0.00000000f, -0.00000000f, -0.00000000f, -0.00000002f, -0.00000000f, 0.00000000f, 0.00000000f, -0.00000000f,
    0.00000000f, -0.00000000f, -0.00000339f, 0.00000029f, 0.00000000f, -0.00000000f, 0.00000000f, 0.00000000f,
    0.00000000f, -0.00000000f, 0.00000060f, -0.00000000f, -0.00000000f, 0.00000000f, -0.00000000f, -0.00000000f,
    -0.00000000f, -0.00000000f, 0.00000000f, 0.00000000f, -0.00000000f, -0.00000000f, -0.00000000f, -0.00000000f,
    0.00000000f, 0.00000000f, 0.00000000f, -0.00000000f, 0.00000000f, 0.00000000f, -0.00000000f, -0.00000000f,
    -0.00000000f, -0.00000000f, -0.00000000f, 0.00000000f, 0.00000000f, -0.00000000f, -0.00000000f, -0.00000000f,
    -0.00000000f, -0.00000000f, -0.00000000f, 0.00000000f, -0.00000000f, 0.00000128f, 0.00000000f, 0.00000000f,
    0.05272647f, -0.00001870f, -0.00000000f, 0.09166950f, 0.06856442f, 0.05024567f, 0.05653927f, 0.03957415f,
    -0.00000000f, -0.06026316f, 0.02092265f, 0.02239529f, -0.07976311f, -0.00000000f, 0.00000000f, -0.05811644f,
    -0.00000000f, -0.00000000f, 0.05249881f, 0.04007922f, 0.06322616f, 0.00000000f, 0.11637231f, 0.00000000f,
    0.07239839f, 0.13593353f, -0.00000000f, 0.00000000f, -0.05706201f, -0.00000000f, 0.07305866f, 0.03035532f,
    0.06651734f, -0.15025146f, 0.06832314f, 0.09194086f, 0.07493819f, -0.15635519f, 0.09334280f, 0.06820570f,
    0.09007335f, 0.00000000f, 0.03290614f, 0.09732953f, 0.11368527f, 0.02560899f, -0.07178380f, -0.06260066f,
    0.00485819f, 0.00000000f, 0.00000000f, 0.00006282f, 0.00000000f, 0.09826979f, 0.01446534f, 0.05786002f,
    0.10171967f, -0.00000000f, 0.10445835f, -0.00030306f, 0.02420883f, 0.12662953f, -0.03683545f, 0.04469031f,
    -0.00010991f, -0.00000000f, -0.00000000f, 0.02217326f, 0.11563927f, -0.05666258f, 0.03252151f, -0.04872453f,
    -0.08434033f, -0.00000000f, 0.00000000f, 0.00000000f, -0.01971802f, -0.02845692f, -0.00000000f, -0.00000000f,
    0.00000000f, 0.01848163f, 0.00000000f, -0.00000000f, 0.08383974f, 0.07071079f, 0.11747124f, -0.00000000f,
    0.00000000f, -0.13759187f, -0.00000000f, 0.00000000f, -0.14175349f, 0.04452935f, 0.00000000f, 0.00465990f,
    -0.00589176f, 0.04052493f, 0.10924661f, -0.00000000f, -0.00329367f, -0.17339368f, 0.06339690f, 0.04367134f,
    0.01518598f, -0.00001899f, 0.00000000f, 0.04928129f, -0.00000000f, 0.03839919f, 0.02669035f, -0.11041707f,
    -0.17568853f, -0.00000000f, -0.00000000f, 0.08259264f, 0.08104425f, 0.02578680f, 0.02763082f, -0.00000000f,
    0.14446352f, 0.00000000f, 0.00000013f, -0.00000000f, 0.00367587f, -0.00000000f, 0.00000000f, -0.15719296f,
    0.10869368f, -0.00002120f, 0.00000000f, 0.08807393f, 0.04450764f, 0.13888699f, 0.09662485f, 0.06992206f,
    0.00000000f, -0.05270068f, 0.01977059f, 0.01972413f, -0.06863847f, 0.00000000f, 0.00000000f, -0.04562532f,
    0.00000000f, -0.00000000f, 0.03053728f, 0.15810052f, 0.05828545f, 0.00000000f, 0.05466786f, 0.00000000f,
    0.04209625f, 0.10721282f, 0.00000000f, -0.00000000f, -0.05155607f, 0.00000000f, 0.06574371f, 0.06459915f,
    0.05733859f, -0.11764164f, 0.00878021f, 0.09814908f, 0.07521804f, -0.15203659f, 0.12840238f, 0.08063461f,
    0.09191737f, 0.00000000f, 0.01970823f, 0.11794423f, 0.09738920f, 0.09304838f, -0.05350913f, -0.02906384f,
